{"layers":[{"neurons":784},{"neurons":10,"activation":"LeakyReLU","weight":[[0.07494238106826143,0.019762789247740647,0.08581571756474875,-0.08405443546001552,-0.08257603722644534,-0.0538061079181087,0.041053151413593336,0.06697654728157425,-0.006536845069794892,0.03976685641380246,0.030175827297046386,-0.023633210339274437,-0.04296471574368258,-0.021582116342151944,0.07317843313893657,-0.07905097347392329,-0.06789030989493336,0.01731066414654728,0.014898628531408683,0.03549512067044973,0.003547646856783297,0.006750161710899692,-0.08323507874836066,-0.06286999383858738,0.006635265983369477,-0.05919590624320864,-0.016169016374592362,-0.00812679099168752,0.08249514605376973,0.03715076656565796,0.03253970854810058,0.05317945048084394,-0.016465729320388377,0.01589970656838154,-0.08642881358000594,-0.08492116299648066,-0.08655950972685826,-0.05982032567096612,0.029450097722086645,0.05614829122474492,-0.0156369663736354,-0.06681972535545422,-0.044212427733479505,0.06636947229429194,-0.07240624415116671,0.05344914486974903,-0.05759093469873363,0.004393655142396899,-0.020865612123181592,0.021616382248935646,0.08692088513889296,0.02272074276961427,-0.048974322286963856,-0.06529563984087271,-0.014371892585688955,0.032103534254007596,0.04215315443505592,-0.03745067968810337,-0.05900246809806014,0.05417238835332901,0.08611782468397954,0.051940977034144326,-0.06431145233480272,-0.018779403419580083,-0.03572494436051722,0.07253889574778982,-0.03905617373299337,0.013095365966367815,-0.034059294355458555,0.023639424879332818,0.044869655183728346,0.08404576336950645,0.0701975349754671,-0.06585496858331985,-0.06066833754509108,0.08329648742500825,-0.033184129792706324,0.013326084435453819,0.0635355524881038,0.026620009270434022,-0.08227141541733797,0.023984266964080073,0.016434432889484946,-0.013695159665886247,0.05020495711010963,-0.084760998176073,0.0022880820043790816,-0.07328260806531589,0.013461672059351426,-0.08575593894837918,0.01824106756340592,0.0858218370593035,-0.013853450359666246,0.015161466173202163,0.05013004744474498,-0.029626751199815463,0.022030249278758036,0.08257791197671879,-0.04199251504118211,-0.06499580067450317,0.07171288993806381,0.08357786728889896,0.05719765911364828,-0.07451788985703556,-0.07118883074417379,-0.06897096977190713,-0.0826827355578363,-0.036188247696673594,-0.0744446407265853,-0.044831833794610844,-0.04178469088677012,0.07712506371658613,0.05489810740347686,-0.06439576591833059,-0.0030654915101351217,-0.006827509139553525,-0.04714630323665535,0.06791420896007404,0.07132585712346157,0.055221162527395944,-0.044700036098276164,0.04461025069385685,-0.014504894491573325,-0.024283658407927147,-0.029425855138345267,-0.013303567222894353,0.04312468095905188,0.026227527146291986,-0.029575386305100308,-0.031409348653384274,0.06153559997143831,0.023234755308833337,-0.012175230896056575,0.06568048101292741,0.04050087898294731,-0.07284479165365376,0.001452011161232132,0.05242575372167814,-0.004765637482588675,0.02069181466719195,0.02573352177793419,0.014584902063090772,0.06918667293013905,-0.02198911704084236,0.021635706031211083,0.08004411122614141,0.051415872841145044,-0.014870713664136781,-0.05020039679915568,1.754410021500813E-4,0.04799467110350075,0.013164113227775257,-0.008417014725484317,-0.03460543430086582,0.06774511569598995,0.028034483966718076,0.008203407071084134,0.032860988057196686,-0.06890175912823149,-0.02902572982139875,-0.04501543989954646,0.06827999097787368,0.08001745620978241,0.06275659271016665,-0.048844158113567425,-0.07644277870307893,-0.030941185241241165,-0.07372524019765743,-0.019106809727812143,-0.06902813019850139,-0.05921660943201677,0.007008753033508227,-0.028224477968885865,-0.0771489740451286,-0.020925611600795705,0.008068475249734955,0.008395690046287064,-0.06134235476057032,0.04533160615489301,0.06064506864006358,-0.008294659799126747,-0.022011244037474367,-0.061134399387301225,0.04495455082164386,-0.06743514789355722,-0.012053860625315865,0.002469149086144934,0.07688312250009759,0.03920397344872249,0.04783327835526945,0.0808852290370306,-0.048074345253553696,-0.07691147955648142,-0.004468614287574138,-0.07854893509491435,0.07832859133556021,-0.06924006860572604,2.827069963375031E-4,-0.005945215262084338,-0.0695161521517957,0.004923086474231509,-0.0715714480330622,0.06972602783292327,0.0712070272663623,-0.061521198649754055,-0.04568479885226009,-0.07385073462067485,0.08208576191407664,0.024785491330569773,-0.03611997115363031,-0.06834031445134446,-0.050344784423098615,-0.08429956752353453,-0.08307462121095088,-0.07073041812754934,0.03351397322453754,0.047399427370137776,-0.031176523895658233,0.06521528326780032,-0.06239744726722969,-0.048408128090982175,0.05496603433798712,-0.060692307457601284,0.07967228545273815,-0.05529625691967169,0.07885146202165413,0.05030515957842973,0.047774483588085746,-0.003000055958893735,-0.05490319522417728,0.06867392702175118,0.06669624778813685,0.008730601291081974,0.06811274573429882,-0.06437719611900408,-0.0173639896469403,-0.0608703023194024,0.012530001428513153,0.022727343437136078,0.0015297837784080694,0.030482343207210556,0.03471306718201032,-0.03950560139996199,-0.05440472309178037,0.025516460011639413,-0.0017012954361659623,0.007425259873825975,-0.0753777747399853,-0.0695473139465654,-0.06611388292002798,0.0810364261434088,-0.031089997338232145,-0.0559803269758187,0.030124760868510746,-0.010018468051973269,0.021461041899703194,-0.029599125842953402,-0.014887901728973203,0.011283676432556426,0.0867323221898832,-0.005334320023422694,0.038716750293340034,-0.0015628964790562188,-0.0346897954477616,0.06791631924763192,-0.0767101078411188,-0.08368475502639917,0.03140145275420127,-0.063573898276752,-0.00769015194907727,0.06425277244058299,-0.02406573902886355,0.005579411608432598,0.021926819190105206,-0.0761942308614426,-0.016772676030655517,0.06785283830503365,0.07692974029689567,-0.06920357399001248,0.06371428170453679,-0.07253521001920944,0.06260155126784284,-0.00794295795142825,0.033451937661982886,0.043596402337776965,-0.04235642418041896,-0.038537679743864385,-0.03206011526787349,-0.08355613422391411,0.026656980895041486,0.022302128459734723,-0.057372748160214405,-0.0337846925760712,-0.045108592872736934,0.055354971638779345,0.07353203450906608,-0.051152049114397795,-0.046200667276110614,0.06926848738251008,0.06815325387903702,-0.05216996339227491,-0.02542013578225197,0.06515620660794165,-0.013486079664246716,-0.08487422233853743,0.042949133127892274,0.022946962125904885,-0.07791878743808428,0.03184328356245353,0.07584245471540409,0.005173104925029669,0.027271884753522886,-0.01498354347401737,0.009347605779709197,-0.05559204753148545,0.06261259149164808,0.04383674536176533,0.073086291200866,0.04696491922239292,0.04249041700005869,0.04397347271186616,-0.029583634716175256,0.06954849510113124,0.029877893323511283,0.08635117456687216,-0.02337614753700948,0.07700270524763203,0.060022077075366206,-0.02251061766991285,0.04018930753940073,-0.021643862360074335,-0.04940811611676479,0.06744123630912957,-0.0031459018620088033,0.03518427104694466,-0.03178627051139915,-0.06217658246517878,0.0019850649376188336,-0.013142010321205117,0.027238528232418815,0.054555158617077396,-0.04846546054594491,-0.08289594284859454,-0.044427380787578734,-0.07346112445859314,-0.00269930973372525,0.081071954745035,-0.041018759813838894,-0.047266054261278105,0.06222581601646553,-0.039718333151421266,0.08449696633360702,0.008936981345719516,-0.06168088091446565,0.04662942448963508,-0.026884793739334167,-0.041105903206785394,-0.010362804295794658,-0.006458422406747535,-0.0016870611067950258,-0.07256425955714725,0.06145509941291377,-0.05213554398726795,0.06843356497677507,0.07634999519986911,0.02311924515917963,-0.0727728954005475,-0.0363142519267926,-0.08354827475131242,0.03440890800511999,-0.0291913325217889,-0.002997166310646401,-0.05643542305120075,-0.015690054252432483,0.06628895364058415,-0.04901990154345962,-0.06536581483232244,0.0037333827287251865,0.046327696547238895,0.07901887717913558,-0.06334441981260627,-0.01693512463334742,-0.057436213454368154,0.03465482487999124,-0.07760590332004744,-0.08133175760656901,0.06161882134958993,-0.0213496346276407,-0.07150385920202691,-0.08527038332940663,0.014124950768839272,-0.06361080427922348,-0.06635309372992236,-0.04753310313815921,-0.020969472348431384,-0.033216881979200495,-0.0152773449920456,-0.07349285094015387,0.013517545661010735,-0.07419066088956913,-0.00688140954235181,-0.015496089726731293,0.04530168802418111,-0.009026392097349458,0.04669370571211037,-0.025357323061256848,0.01828850663023836,-0.009893858864990883,0.048365613493906605,-0.07571394296146902,0.07205310312749523,-0.030213364963589968,0.026614242399388314,0.06940829697190731,0.045449681414847204,-0.02262492259800009,-0.02695519957047265,0.04703840962486383,0.06262862466184753,-0.012780459225470619,-0.07669606607097332,0.06252160910550571,-0.05882390736082604,0.05067759545776163,0.03646283619656695,-0.03824270435598675,0.04563550946607049,0.006392962942992988,-0.08151734609449002,0.02859914165644851,0.06418722007373845,-0.08469033337920437,0.06692047367111582,0.05040408703247445,0.016543892482830686,-0.041102093765282774,-0.053712052917892335,-0.001129672379590721,-0.051081308757891526,0.05740895371636283,0.01419542393413854,0.037657469564050645,0.03436802491073264,-0.004911992057792413,-0.021285001236389704,0.05867993368706736,-0.06171903330048913,0.05222822150452079,0.013395798741593978,0.048238040063700714,-0.07545665595999725,0.08614359791710507,-0.01818941938350094,0.052102118858710945,-0.08666640267667562,0.00567723321429622,-0.03045370461287186,-0.0039841259543298806,-0.05495776843029185,-0.0227286738678817,0.020942165700619048,0.0785928033018443,0.04862772329824596,0.062280833515803616,-0.05532629816731088,0.007289137672542919,0.04366867832156328,0.05912417754233617,-0.05185615489197976,0.07083823314764746,0.06650992546030493,-0.04043914400538718,0.06761357263287945,-0.060337387597354575,0.026817999140552176,-0.029693087490105807,0.06194672551251435,0.012699439093655424,-0.06314620050874653,-0.031235825920351963,-0.07474612789071203,0.0864678119355684,-0.0074040884749404946,-0.016371472558947227,0.004548805782296387,0.012376771605713327,-0.011320193752214455,-0.006139567755413984,-0.027694609547835824,-0.02492784546753531,-0.06368968126922123,-0.08421169574376182,-0.0016092813504526172,0.06030716564340174,-0.04319333130994169,-0.03123303375715892,0.00171990018042649,-0.08145928898878055,0.06543233002182057,0.08452273012928731,-0.07529492070888923,-0.05922210702698276,0.016540744080692695,-0.021277058704873772,0.08004001069442664,-0.04230573729381968,0.0710021704607603,-0.04864997143924376,0.01860618239009253,0.0801694619319397,0.01850743568249382,-0.07356506052983318,0.05581051705015377,-0.009815386966041097,0.06777798154795807,-1.9628002506605536E-4,0.0035863366502213033,0.03117879493953728,-0.011959415837433934,-0.03228583746152723,0.03551276027196877,0.0199834460331174,-0.07035421595274248,-0.0041072919659275245,-0.08427721532115556,-0.05783808222368427,-0.05212744517131008,0.015048991095469186,-0.07415075015543497,-0.06570665929525252,-0.08657653289164569,0.011464459836340328,-0.03483604368540878,-0.058463413273002224,-0.04301308601049581,-0.045320382822245556,0.08154784383185532,-0.06500975342619923,0.05052063766398437,-0.00986725751710635,0.008645163738643198,-0.07985035434760351,0.044682388394334346,-0.07908324262784873,0.03909226950503108,0.006801446434430191,0.010626698529551856,-0.007284737488492694,-0.0599063812828547,-0.04415859759445199,0.04197916268845245,-0.06257714877482733,0.056580031833170195,0.06758503987811276,-0.04533222400690364,0.06824684813634442,0.029896221664438886,0.040945287516632116,0.05072708160668905,0.06945937485710443,-3.6541129432051176E-4,0.02133346378570293,0.0168130241550697,-0.07986323460592033,0.05733767700070455,0.0591868671215683,0.006526412588782353,-0.057433049941343635,-0.08151955500346425,-0.026579006464027395,0.07198646007773471,0.01953947063437163,-0.04887781267631691,-0.06192614321943736,-7.956559231622002E-4,0.04233400630354622,0.07053940293679238,0.08218814169613996,-0.03569120432036523,-0.010867347337698646,-0.08315788468778548,-0.05263137733635578,-0.07779186751892993,0.03790340682967518,0.02765360386019001,-0.081557907665055,-0.0367942907129322,-0.001394929118723702,0.021617728193967223,-0.05034811642043713,0.07766367783049322,0.03497364524512577,0.0415903287394716,-0.02677126856377293,-0.024630717639428788,-0.08403157991380501,-0.04577825251961749,0.026805573642419412,-0.03586553684660978,0.032311685142127226,0.004248515662069848,0.04332604352447344,-0.0030957649576304515,0.07590223035137267,0.010642730977622267,-0.04834338726108595,-0.02339559245767123,0.04428773852349148,-0.0730084260306533,0.0050408777977750145,0.07442454240997992,0.05827187022981942,0.07699384591835715,-0.07298867215166897,0.0021610908242891158,0.0708752291584392,0.06136453670987246,-0.06655665363094336,-0.07557664864279699,0.04788129350344351,0.043773601125360675,-0.03064508378674772,0.0047090950501576115,-0.05358742607716798,0.07711402105453628,0.06859873010460435,-0.08667023440821878,-0.06834425008997096,-0.06811579235465866,-0.06996097383366856,-0.07018724101219911,-0.05269735762222528,-0.08281522347847725,-3.667961896976866E-4,-0.053103008186465274,0.07054694267296328,0.07450104248215399,-0.015087465379782842,-0.05020024905987564,-0.04929823732041302,0.018660314002572894,-0.07082210173508702,0.08017492555605008,-0.010200097926049818,-0.014252756268614653,0.032163760201243195,0.0797171053164314,-0.04801416382529341,0.054193995107529286,0.0537602213758665,-0.03708912371882241,-0.07774476358670633,0.05516267778057357,-0.027391046704689396,0.0020300414324128796,-0.06830173896723651,-0.02977160850049813,0.0655668051222621,0.035016302048035124,-0.07272476603495767,-0.055003132749921226,0.03352259644518458,0.034028706175317766,-0.02317083850769666,0.006591831876175033,0.027463629915196918,-0.06560860529891514,-0.012054025234780033,-0.015288219999579022,-0.0765199046794695,-0.014945391662844535,0.08193829360986991,-0.082695310466191,0.08205285995065503,-0.07220356009311354,-0.07413065471564736,-0.02511784482525721,-0.008914148197911918,-0.046261967954027865,-0.06624439082316906,-0.004478816609664292,-0.07805480935018838,0.02944680024337636,0.02818662381346185,0.01827427299621695,-0.061916007938051174,0.021904649442806106,-0.019594546274560937,0.04813032922624913,0.061665947854742914,0.07409260336391667,-0.027485416435216816,0.03355863720441975,0.008823264252557089,0.008660274802230526,-0.0222186440969283,-0.0016087504735944633,-0.0682684205032244,0.08508602072970707,-0.022140216848606096,-0.0046713908348887554,-0.009199196338927951,0.02940974187505124,-0.05132197609285971,-0.014610533605199965,-0.056647018929062404,-0.04876739961462801,0.03007678983081234,0.04170496039409802,-0.07038243585107547,0.03615874437254708,0.07829585933065955,0.016830778216957373,0.05611658287417487,0.023204869209954026,-0.055964236762888676,-0.024566667303421635,-0.029615946538172438,-0.048511341552042196,0.019744185297128448,0.03435784228982537,-0.08441213029611497,0.011125435860255066,0.01113197188990957,-0.039914689632759376,-0.05669532223119279,0.06511232764042368,-0.08628891615776932,0.06631235410869088,0.027178251007624516,0.04409254908667641,-0.08213494794222734,0.001855065515223785,-0.011422335322445323,-0.02581929433755427,-0.011455834402472281,-0.06540660988029372,0.06890905664194964,0.060198527344125695,-0.0028713123571443796,0.06256563777261748,-0.030607954942861504,-0.08051360834349028,0.021809120298957645,0.03642461596933013,-0.08339046725365243,0.03558750248585115,0.06576289957685642,0.038736815836799145,-0.05685582761995684,0.06031054312689355,0.0514445243303937,0.039504129451600936,-0.054322979300721004,0.05891754005627755,0.02501630766232662,0.020479028013147348,0.08157264153125693,0.0062460227600229035,-0.06868032796115811,0.08317175346470343,0.004082181477548908,0.07432039330514567,-0.05522008299011463,-0.03864618865291054,0.02846792053301375,0.02439241728974429,0.07000491774836554,-0.05364402422710599,0.02539645175609635,0.006406813262636906,-0.023783528430566192,0.001185649736738479,-0.0528200369642716,0.0030980823695627886,0.047159451433840385,0.05848591291638356,0.05441729329368629,0.0601760402692997,0.03898805269277869,-0.009046916366529267,-0.08080765053505137,0.02479543542270628,0.08208132998820881],[-0.07644356432685753,0.02177163256906419,-0.043422095752406825,-0.05340504020691147,0.07460925017135245,-0.011741807515908271,0.0312757622390897,-0.06171072283326548,-0.026678941505524426,0.035416888619168495,-0.011249106696325109,0.06914703427914558,-0.0019454988985629228,0.006755144071535555,-0.0840230956798235,0.010236931365387291,0.05382130803717841,-0.039801305573523904,-0.005283948582518321,-0.01348650933571913,0.04688485101796683,0.07297269048535099,-0.015558919193961445,0.00578363327333637,0.030328785522488487,-0.07441282161081263,-0.08091196664720167,-0.012965678313181985,-0.039963625149996004,-0.07837276694683713,0.08609825462989386,-0.0626475345115581,0.07538293238017445,0.060354033699409816,-0.002015357185310716,-0.07966571943543313,0.07891666211054275,-7.204993323067526E-4,-0.064040452520565,0.05337602846350304,-0.023774519753467515,0.03988258878696039,-0.004794904479372605,-0.07114716664264012,-0.007107270163821991,-0.0816898366030237,-0.0026678396465599414,0.07367386620541719,0.0597903246785369,0.06378583869046912,0.05311501658388857,-0.00998032860006691,-0.06664819214958008,0.04870623630227885,-0.005031486071661315,0.040985703800881415,0.06600468240708658,-0.007745589226560629,0.013939280293196158,-0.026342099444958002,0.021029354628708048,0.07255299914818512,0.03594554605512985,0.016265943333212626,0.055364867108091874,-0.025970689455932873,-0.03254072288996001,0.050997652594966254,-0.06374594542177123,-9.027695858531999E-4,-0.002475595480715199,0.005913875974791887,-0.07144611620304908,0.08471114568311587,-0.05869799367957541,-0.05049683436519015,9.801767517645965E-4,-0.07142226653810098,-0.014688460912281502,0.07076275564587664,-0.05440002391195425,0.06376821859562055,-0.04021078426383997,0.004896889088178774,0.0172569844962373,-0.0036979935070225655,0.033876759071823435,-0.08583440866982327,0.07503585588782669,0.03616192921833525,0.06335362212425605,-0.07219953400062194,0.08690782012689041,-0.06667917108282738,0.03883344792301168,-0.07258308201548755,0.05939676141781613,0.025264377008983346,-0.08085611399214715,0.012180244750821557,-0.03597322220205624,-0.04422459744698668,0.013601449957713122,-0.016591004238989432,-0.0635591440897714,-0.05143900325829134,0.00464776270644197,-0.048483643889448334,-0.03847629469954278,-0.04999032472078768,0.01783744391772329,-0.07402190990444366,-0.05348149330498662,0.03093165927137662,-0.07674808888394825,-0.025192334139628153,-0.009540486975949707,-0.08161489743074796,-0.011063350523724029,-0.05423102416918026,0.07745268364333736,0.030211448065725722,-0.06369968415492909,-0.004843297179699422,0.06466983648027921,0.06878220966203877,0.05934008969143581,-0.024964836604287003,0.00835798750644015,0.047931828270201884,-0.08397346402440192,-0.03706615220127134,-0.06325594564538084,-0.020111726786458298,-0.0587141961624086,-0.04490352077177442,0.046922196831676255,0.07104598396691827,0.05052497349143841,-0.04078397609926474,0.06957386273649431,0.0396530952213788,-0.03946433155891739,-0.08089967024033036,0.007458540558634245,-0.06573992714369663,-0.043507703484969774,0.07910341741625866,0.08587205938677084,-0.006586420273849055,-0.0018608578658771688,-0.0321210475156631,-0.06025726892457043,-0.015777618101264813,-0.048957836199348154,-0.06368682562457019,0.025504842282862632,0.030738992728228595,-0.017833506798607283,0.01648985363878742,0.010399792015247628,0.04517481756600197,0.028418349250035925,-0.024028399486180546,0.057573391390386176,-0.0678286428534795,-0.08149750152940914,0.06768588400424363,-0.003563950089716233,-0.00788891124180556,-0.005901641899818834,-0.03126110306399299,0.026082493103303985,0.02861039793084988,0.0056464912982820276,0.014971623588616196,0.057378584611314294,-0.004403745009594087,-0.020716764057653773,-0.019203184649558943,-0.04427292755354078,0.05607256416523373,-0.007299885457014042,-0.06262561884122786,0.08330702773035657,-0.04359235126814699,0.06665048732963932,-0.021156567472759836,0.0038516985596009855,0.04175253376926403,-0.02227961280679679,-0.06686949723309554,0.050983006738039016,-0.004863412311142144,-0.0425272426131111,-0.0022273235053808568,-0.026790824502691647,0.04217232531030618,0.06387361529005312,0.016501289224102936,-0.031186258786266918,0.017957199140828353,0.04866013169186566,0.058353324441214424,-0.004455587717199494,0.054793850193732736,0.003688911494070368,0.02985311731425865,0.017154949491008112,0.04702050542585385,-0.06562187434336339,0.04260761796230411,-0.0010575343913051592,0.08459492062846387,-0.05859095715900942,0.06654193078503594,-0.07704885236322015,-0.031856340715421254,0.0077543529932868555,-0.023240026385460553,-0.07180364845291695,0.006114430365538089,0.04071906724013197,-0.0746793043291804,-0.07149068103658038,-0.016900782655056942,-0.005524657614150627,0.06849290897455411,0.044478011362786285,0.03774538986204802,-0.01817901307753098,0.04074889916700961,-0.07015122791690194,-0.03256553080488628,0.02325072037508139,-0.05088618001825169,-0.049698382601552876,0.01897115816091189,-0.013449758305741556,0.014095541161700963,-0.06918680876392143,0.04587112802851288,-0.0556833661666287,-0.016371714142097163,0.07578481203570535,0.07381939810083063,-0.07359449075469282,0.04472611584715032,-0.016604603348785576,0.06328597361756517,0.051916837968786975,0.058168729175086004,0.06739984731454533,0.03690108619830661,-0.006611532020059591,0.08210142946499288,0.038401647909113816,0.03144290549686621,0.06782804314428606,0.08354925858384143,-0.004544213908563961,-0.0037134723523602206,-0.01875996858967719,-0.04810649968600412,-0.07612547494441409,-0.046041926465409305,-0.010484589243193922,0.08310530193326349,0.07887569506047859,-0.06663415466614679,-0.052840213723951784,-0.06344126527759804,0.05694738062008769,0.05941652917229692,-0.08015084878223142,0.06508468343333261,-0.0812877053626605,0.01276099363699234,0.06503938454940282,-0.03140769212848366,-0.018619552326272368,0.08513027061916457,-0.011616451902388221,-0.028583758488179536,0.04527617159338978,0.022279080048260312,-0.05755769856611628,-0.0677918219992355,-0.05990342110393822,0.004356494585773158,0.009314913900356466,-0.06270026553915178,0.07239518539280385,-0.030726694880353442,-0.043648611251118165,0.0048093492533677375,0.048699927030691585,0.0651859218459386,-0.05381109644082962,0.07060698393619369,-0.03575734314544474,0.0013481175698955524,-0.08200842065867026,0.08265798691649368,0.050916613347108106,0.08381755962329757,-0.07524480216385226,0.02606607492994972,-0.03314267097598797,-0.018083496528250028,0.04323207773729945,0.00648894397288137,-0.04755766968462102,0.0015988041113142114,-0.01019712358919869,0.07366966797333462,0.006236164228789401,-0.061608829279787974,0.08667648949943468,0.03126339301376779,-8.325660810527983E-4,-0.035822941365700654,0.021840795850142477,-0.06127456430259503,0.05148733156296995,-0.004821035215439068,-0.0319774599855997,0.08167615639922053,0.030955249487862796,-0.0013487073869963935,-0.05423494341241777,0.01239684179687137,-0.07071731599783887,0.06906475693605743,-0.004255426207313279,0.02543890241769403,-0.036080163478413245,-0.04618466713775514,0.07515703970289106,-0.055892778543523945,-0.038871082862766394,0.07149673227930033,0.053976724374508456,-0.0785764349844016,-0.014759007796090285,6.15178741277087E-4,-0.012210651776402282,0.041976514262852184,-0.0840112745147758,0.0426346437287117,0.052620063947522125,-0.0481506796812426,-0.013271745616706567,0.026852858104222097,0.04869702615652749,0.0288597307524916,0.08425565698329333,0.06762954745026133,0.0627086397105966,-0.002785948885196314,-0.012477333588561122,0.02200061918379266,0.07793351053595286,0.028247520660390896,-0.07882802330541251,-0.05042935688611966,0.03292549004193365,-0.03154540156328728,0.020901581837986908,0.01919386667960151,-0.042307710641279805,-0.08531426323862124,0.051151964905561294,-0.07051365537500617,0.07541870086306031,-0.08292145814509114,0.0035621028523401235,-0.04740552374701373,0.02286537254288047,0.038219235034087286,-0.0673723745164563,-0.04832417818533201,-0.046677656497667315,0.07414861491450304,0.03608193148414446,-0.03600313307894357,0.07372692646622328,-0.03170773793084355,-0.03823121892513939,0.08250369287908639,0.08281890823511806,0.04409010718544328,0.06159435986541188,-0.058449631806911345,0.0347684192347858,-0.0762172118015438,-0.05686241197710683,-0.08014440519809843,0.06692727876070159,0.04887294110875864,1.3123569107921802E-4,-0.01875323239837258,-0.03663380964987147,-0.016206016659780324,0.04477564450539752,0.06766417878446482,-0.0014591339710068926,-0.05250758554947617,-0.03430902724106034,-0.054256854010152594,0.018784453244549363,0.007971958790126295,0.01592128112954013,0.0658322075206572,0.029307416375454556,-0.04832659825035359,-0.045127895339494496,-0.047003320513918916,0.018481792288889052,0.06027064293406869,-0.05056566088523377,-0.053466019758077826,0.01957129823853228,-0.01842002426030946,0.047797043912142435,0.042811048445888185,0.04874255186475952,0.01997775584908515,0.039541497738470266,-0.08444275585683958,0.07170965696127526,0.06392087697084924,0.06944645188482705,-0.05244515754171124,0.05795761698262496,-0.03227781891080629,-0.01612009892083616,0.016022977763264504,-0.06319091986719645,0.08645532334514877,-0.05258043889192033,0.005092476619552414,-0.02856272141384415,-0.011288355965312288,0.051283894410588796,-3.1866934187013614E-4,0.04032431315582492,0.0508788300814959,-0.06783813282300506,-0.023606758914003927,-0.051442015192433355,-0.020133459109683765,0.01913095511714163,-0.01384200063573321,-0.029663872748181455,0.06728289986325064,-0.05066109315008392,-0.015525977107057963,-0.026199023988180567,-0.06036538443449971,-0.07811374345872461,-0.06428297241188902,-0.056930994157311114,0.0314618056624071,-0.026876624266464685,0.0687640752299035,-0.030874203301414653,0.06945991889114682,0.08358785899738376,-0.012615079198680053,0.06665142014860032,0.07553719910282916,-0.02314316340944176,-0.026617204146974712,-0.025822370462114937,-0.0011395455777642239,-0.053647182656105984,-0.07756713981741754,-0.04967199527641,0.06652987648169428,-0.01804526434259164,-0.07436947972698997,-0.03117537056009596,0.0234729554222274,-0.08389343685609761,-0.050427896316591635,0.03621575908871387,0.023032547538197338,0.023382309402646642,-0.02623257745921151,0.0034150051101180918,0.04081850987881799,-0.03220970301350477,-0.05376775129322525,0.039315976125818594,3.640872144435677E-4,0.03922491225561484,-0.05970728578128508,0.08520002916584378,-0.042934451182745664,0.008869101560456586,0.03201654945354253,-0.08507172637611195,-0.06799783633631189,0.04366800719973072,-0.018701895109120494,5.601935581976123E-5,-0.045665937396550886,0.07102928512297027,0.016223335628208314,-0.035689073481068805,0.03990434638952303,-0.019178549896766737,0.05965743353394325,-0.0467092634229825,0.05441709054624508,0.08401225193190467,0.041296276511754756,-0.07244486802454496,0.051791246757149814,0.07106408288088971,-0.035393938118210136,0.010797783829957285,0.06886777272678099,0.024143089126832405,-0.06973084890710367,0.01505698868044725,-0.03900399646502891,-0.06424410229078138,0.06518757068913178,0.056804336909048445,0.021247173424948543,-0.07804718687288968,-0.02625120570999175,0.060573569476566766,-0.04332827932391275,-0.020300026664230926,0.04551157489100502,-0.057504139174430445,-0.04172299194088996,0.020529181969509543,0.046497083060815604,0.0852877154185952,0.04287492595372699,-0.04982569032540933,0.046223256413574165,-0.054349276444207464,-0.018691442028095216,0.042426019072853184,-0.04446315336167159,0.07783214442437707,-0.006717601049491177,-0.07614445192828061,-0.030538882220264445,0.05324524410577029,0.07285030343010523,0.03225133419913816,0.06973545600470969,-0.04557588745339507,0.015440426729798448,0.07612776251825419,-0.059288188619470335,0.033157946234866405,-0.06672796809265612,0.04277687074916006,0.007910343228716733,0.03951135549921139,0.03322679487189359,0.013471938058864475,0.04778258611367963,0.07597305922704026,0.08465749340235645,0.012001709385538703,-0.02371132638324201,-0.019625893973714278,0.019320911976008236,0.0274474856958193,0.05294737519821754,-0.00892427528252281,0.08600638727119368,0.015889471295772933,0.025196959192436016,0.06940560467538001,-0.03021546820577478,-0.06974191100305559,0.07783496195726892,-0.026037752553085346,0.056545214576622434,0.013987095923677497,0.0080888996187752,-0.02665067225535574,0.05476277496208173,0.07170355838517632,0.056828350335982554,-0.07344120510906077,-0.04056700159259196,-0.025798286448048192,0.06033481329096823,0.06444559472409643,0.07379274322317105,-0.005758096202966391,-0.014894288620503628,-0.0038997527317467485,-0.08617586110851133,-0.0582475494111813,0.0173061228837883,-0.037010511773795184,0.07749875141921955,-0.04032067481852234,0.06831208935819705,-0.011038704925039229,-0.0015827201192738895,-0.03280294459820705,-0.0336695488356977,-0.030768262443352394,0.08638610521189158,0.07301569343681547,0.07700618836073134,0.07703082163219557,-0.07385202848026269,-0.084802629899864,-0.05275101432603705,0.019549110978735722,0.05777971747851153,-0.03521889197968759,-0.05389051780449145,-0.07235796902483838,-0.08315935570413789,0.0038124027482513644,-0.08416092379569656,-0.07015949030360122,-0.04758298318074658,0.00926611275735439,0.06029902943470389,-0.04268031674049199,0.06361488907715417,-0.03501352449362577,-0.029062270706749677,0.012205414314233646,0.06533558950146032,-0.050414064381586667,0.06917536116169351,0.022399191883783913,0.07967679346505445,0.08061302327734764,0.08664204843736666,0.01434614761832778,0.01892463545932361,0.04359429981035207,-0.07195100291967173,-0.03875204868163241,-0.08527763437001168,0.07782987309782935,-0.062387258767482925,-0.06431821677118543,0.06215669611700144,-0.06634216449275859,-0.010993133286249405,0.04010271458555082,-0.06138639177197167,0.08117988703901258,0.024962198102020366,0.06021180106608636,-0.02758439888700451,-0.005297105034596703,-0.05644826364334278,0.004161815133262358,0.038978831977490365,-0.02509391266587981,-0.05091273396516012,-0.04954791343038463,0.08535148298327248,-0.05431935764798888,-0.06529810663222849,-0.028693577094433778,-0.07979626201487046,-0.018663289812735896,0.0422969401054177,-0.03556288149419227,-0.0020781561085464395,-0.01097156591558333,0.0011312580146461328,-0.0587228026705521,-0.05122659548374792,-0.0579391875688339,0.08622113245278606,0.058981156647347356,0.0634801770891528,0.05063147519877843,-0.07616071226743185,0.0846033048147509,0.034278909530743674,0.041427886499585904,0.058948902343199217,-0.061306207070967955,-0.0364834471733934,-0.006126077046471941,0.0032458360661553193,0.06488677789669368,0.05281799608323027,-0.0705160081660377,-0.04714611416840918,0.07588318728273999,-0.06604530763621574,0.0248524882818436,-0.014814055019714396,-0.07036514691108293,0.04808038062906427,-0.02688673927662945,0.05769447230091943,0.08408205813448233,-0.023760906473775992,0.04426870332601077,0.0024844057214133716,0.042021512893014465,-0.04380935440784321,0.02207953956540665,0.014599517063181902,-0.08081849835470813,0.02592072408521382,-0.017523546035858085,0.08330125795625347,-0.030130442719047645,0.013522778709861592,-0.07760953953744776,0.029353787822869064,0.03978522280770245,0.04239925569388163,0.04355941537743153,0.028855291771402995,0.04464186080018564,0.009141058686486073,-0.005785446420167331,0.04245647324780613,-0.026348781204920662,-0.019908212702420876,0.04878305725902259,-0.06737736828640133,-0.0144414108553363,0.07390069323473707,-0.027096398022931005,-0.028804661667207028,-0.06921965769835887,0.04937315688072855,-0.06797280073450167,-0.036255975662685916,-0.01310271732153226,-0.03969214308188386,0.026369542304602964,0.03667712861036122,0.030980857754180673,0.06213315487792313,0.0058315568977737675,0.03873014122701375,0.009749682451269396,0.03897774144581142,-0.004535156493265198,0.0793202980686794,-0.04110142296658677,0.036560542626220174,0.04014872139273213,0.01593260536990812,0.0248444173586746,0.0320166595342035,-0.025062941145193723,0.08604675523462348,-0.0860422253548006,-0.04542100384815097,-9.210679317656041E-4,0.005398761475675144,-0.06406174970726977,0.07031641062078968,0.04544770748931473,0.052741394090739586,0.006906739173896158,0.0018460665108460947,0.029113571927689114,0.009929096209449793,0.04545766743289072,0.08235565690503424,0.06992414047697218,-0.04108610365346593,-0.06151044016864277,-0.03142512062731908],[-0.08270287976655064,0.02432535997313357,-0.007622810111669789,-0.0723887053135174,0.08399484737005576,0.06168126070480143,0.006229987931575254,-0.07311444503605062,0.0038797337896352957,-0.038323472191350315,-0.05083265418035866,-0.05271579315773585,-0.0722913795183602,0.07368783891562748,-0.01920111301776434,0.011732708022304804,0.0036339893782159696,0.042525888020327765,0.003755886357930077,0.07959197287035032,0.017985334455576894,-0.04942246339548418,0.053757065442843414,-0.06137632964227949,-0.0535957509087347,-0.031162867583259188,0.02718898584012534,0.06555745078981251,-0.061108831906584046,-0.06914994164852385,0.0018122663449706233,-0.04840818893389481,-0.0063103226706585315,0.036460799033531645,-0.018916634483277704,-6.895476756064005E-4,0.021385074617455247,-0.0027848071114945985,0.0582666526971213,-0.026594189995397862,0.007425358049318918,0.031228786627132757,0.029297153996936606,-0.07127273230993349,-0.06362532857139812,-0.010863254770110187,9.095188683627302E-4,-0.05026648591089658,0.07404861942665454,0.041588595212284515,0.07952885422261476,0.017587627935608204,0.0061418148932223665,0.0721205626340137,-0.05576212553072858,0.05983434659189076,-0.047146362976186705,-0.07806786791452992,-0.06861974337844202,0.05764414852198702,0.06492624711529252,0.020789438416824634,-0.00590470071832377,-4.261470743984093E-5,0.06917807166115718,-0.04133832283701087,-0.06827492234195397,-0.04535701792987397,-0.06522048204376284,0.03543507875749199,-0.022222470449327583,0.002097998000714664,-0.005489932260701993,-0.03631064880445177,-0.04901074307303879,0.028799460471606815,0.028162825433180657,0.08038065612951072,0.02267099643570726,0.009530840488224586,0.011044238725177069,-0.0536747402707275,0.058520420272790745,-0.04148695794832963,0.08019203846568182,-0.07682662242698263,0.05121253993121154,0.05367414116101747,-0.07622921362978043,-0.014088612081995671,-0.060546086792257994,0.04693235978040947,-0.0794923140061326,0.049582845433696156,0.023724775017283532,-0.02667070527944089,0.07733901324044469,0.011894656517955333,-0.01825841209519966,0.06915502986035978,0.03144223747730822,-0.010867480603545095,0.014007141367631645,0.023708124055249677,-0.02649797012364978,0.02853136495200351,-0.07524543813732565,-0.028208059164255082,-0.023283536816576075,-0.010751014516119166,-0.05478989382852238,0.017844490849679994,-0.04118191496459756,-0.017135489494748482,0.035598344989745526,-0.01006143000696949,0.08296382424299681,-0.020260862042167645,-0.0610586377815777,0.05354286702002116,0.052860530236043646,-0.008302764144112363,-0.062207043452453994,0.07750914043374307,-0.026453313241407903,0.05943786605916864,-0.021723779695108993,0.04273799454210398,0.04467409728122979,-0.05591868604797379,0.05828228963874278,-0.051940858926447266,-0.019384012758212683,-0.07514823069944765,0.004630036947270799,0.056770769519808084,0.03021645457960036,7.468980494740321E-4,0.01601218829028988,-0.08285540692906744,0.0053388748179380085,0.08181821098286653,-0.06161795309317778,0.005222579316488833,-0.08304391215419972,0.06217768797648856,0.004483639279049208,0.07365840164624625,0.018248085059835703,-0.03489401630207688,-0.08291424022934292,-0.036897651323700216,-0.011445107470660692,-0.06021527381700181,0.04798906382098097,-0.01888125431060949,0.0469370609723729,-0.07191898504944434,0.05033210150937417,0.001087948224166893,-0.017754832884897286,-0.042951215579579635,0.037996323653591804,0.08385356651335998,0.03710782164569903,-0.011375848871166343,-0.054779587174652956,0.03250324151537278,0.05860475827757058,-0.06843748129142684,0.050729432560683935,-0.01792095944384958,-0.08474928749553982,-0.04200654888438696,0.029727699944223095,-0.0272685799172209,0.01402228645372338,-0.001106051572430633,0.012725898000211133,-0.0539609579343823,0.042555537027066326,0.01953161755611507,-0.04307200516989563,-0.01421933684997264,0.03714845911344441,0.025788255631466046,0.0035352001249305976,0.08315094167813956,0.06818452375600415,-0.0030392766107920164,0.05182280774860543,-0.0817102366805931,-0.06700833118580507,0.01806149393663317,0.0782197547932376,0.07636237566242453,0.07686567034018177,-0.07846578073769599,-0.05907737449855859,0.07866135239672274,-0.027495608038870502,0.0541812068470167,-0.024906325313765732,-0.008413095139486078,-0.08092309341895756,0.08503795861066502,-0.010079944532869301,-0.027089672910352188,0.00755712459381088,-0.07549858299675355,0.06424486350931607,0.00332558991107591,0.030480980133382962,-7.755910955966627E-4,-0.08256666276597513,0.02070585689098487,0.06015045048976273,-0.025898966086242113,0.05962791417302651,0.01030742693304061,0.017561926633217175,0.04895997763679339,-0.05318397584226916,0.026415218072553086,0.053686824396361826,-0.007429806926166083,-0.020427698576484306,-0.05112900525579888,0.08433677142142242,0.05017575356499394,0.013376887203844763,0.020194259507252444,0.0690992913293399,-0.029324373783916113,-0.03584714411800562,0.046794737865019705,-0.007563787800827903,0.04671941951625972,-0.016484818285964167,0.022114311419571955,0.041045593075886865,-0.06725203656300506,0.03603125653541836,-0.02955196334649344,-0.0383830616467633,0.055864590629299826,-0.003216535386793507,0.04697575156300045,0.06420627227417158,0.01238874747498061,0.019716881249372292,-0.0532684409848971,-0.05757500387167439,-0.0320670033004645,0.008206651166522349,-0.04309250747566939,0.06905172522327097,0.03985606367413228,0.00945819294333391,-0.012065315410454778,-0.017913523217923222,0.06599465638226087,0.037553795046576466,-0.028179422185345308,-0.04881903863612378,-0.07122165693808792,-0.0868265954978088,-0.06956290118218726,-0.0022402787984643437,0.01064827623442974,0.033903799280143476,-0.04577577749553344,0.020921920770837283,0.005081530719699912,0.0602232902996276,0.013853958424323208,0.0025839287664637216,0.05307228822349591,0.01833384181114467,-0.05991020903724616,-0.06032724351707767,0.0256053121655006,-0.08453177506058754,-0.03103157932903547,-0.015502100192315278,-0.03183940673742917,0.013348025822890812,-0.019346431475516263,-0.08033256858671753,0.04260074252052656,-0.005857464063316086,0.013444710122962448,-0.07655110821662779,0.019803918283110865,0.04402726735174809,0.055717331729691955,-0.06819434772666269,0.018983827824853357,-0.03148328550100787,-0.05235086721107479,0.05719682834374862,0.02966409469504346,0.03631990461391713,0.0415014831942048,0.012611835516091602,0.07134000819574461,0.030959882379397362,0.03965914432838618,-0.0815003307747443,0.05543266920719688,0.005595382331068301,-0.031066186650467387,-0.020968737716846434,-0.08540567523069469,0.005922681075196187,0.07285816456303285,0.07049980888904298,0.03577117807397112,0.025409831906213983,0.03033463333488539,0.06830054149692034,-0.01963764504792801,-0.027211128012257828,-0.07018286265515719,0.07181857444110795,0.08265946308683102,0.05388811235029992,0.0025138787272667,-0.05532485490843656,-0.03264826226605946,-0.02868887139948119,-0.035349079402289006,-0.020598862432571405,-0.038018409003902694,-0.04260169807749586,-0.0312927536919676,-0.049602752128681926,-0.02473709457117295,0.04218607573042355,0.012676395777909877,-0.033043471032909257,0.01964291414808787,0.08211164577054267,0.05294256099980195,-0.07809240534999752,-0.07180614012656594,0.018931848863707367,0.04739365444025911,0.0620129921754025,-0.0791681397952427,0.05973897846056256,-0.046873885023401236,0.031887227147340796,-0.056887491981762066,0.03910602491158841,-0.03722868754281025,-0.001941193482006885,-0.017660609749811287,-0.005640330359647535,0.007104200458868567,0.020151900089185486,0.046413202792392624,-0.04741259613001141,-0.08088441131686688,-0.04331400130114173,0.017191697451238625,-0.01800299099627043,-0.03205924818973066,0.03619945882603176,0.01252428185201827,-0.019737821133436462,0.04501875627839227,-7.835742652185708E-4,-0.04244922853355227,0.019200074591302962,0.005231935987531285,0.010972900431139548,-0.0346428029679678,-0.01616453234848743,0.05282624925152073,0.04700460052960775,0.08419129781430021,-0.01096839505946266,-0.005402268124141305,5.759141837182679E-4,0.004834696311503875,-0.02757941274281923,-0.004928691854667295,-0.05879378820005898,-0.014918164029945977,-0.01921578538092657,-0.007927466250156041,0.004586704438162443,0.04615398895519805,0.06810604093288698,-0.017733190454119467,0.00607176736901801,0.01111544619834231,-0.0614494499203675,0.013288105629644597,0.007782975324101626,-0.050965735550717976,0.044438136061046164,-0.08555233029546984,-0.013068845035197839,-0.00744420795759198,0.02478524832604238,-0.015647616502756423,0.038715179299337064,0.07564534724564166,-0.03168694540329247,0.00871426190706383,0.02252875149825268,-0.06292785021702216,-0.005969828199371721,-0.03816471328450121,0.0774650184736943,-0.05249793986973398,0.01998953447950832,0.0765128758268784,-0.06971884105290019,-0.05895623519812914,0.03563038995361298,-0.07026544809799247,0.04240205404650111,0.0026859525824444986,-0.011315048843719054,0.014089480498624555,0.03518709965175946,-0.04349581353479665,0.03831146351635216,-0.07911682076183225,-0.06815364683505895,-0.08240570391875622,0.04746100214871321,0.03753185022664265,0.022007629973316362,0.028884134603928826,0.04864284291842256,-0.0721919610725843,-0.04870168307977603,0.050511834317460196,0.002806831689034328,-0.08230238936932716,0.05466055704457797,0.05912859046113739,-0.00251736283889846,0.012823092686877756,-0.04593939317638849,0.049105625378733433,0.016037132044969617,-0.0716404435036209,-0.07206073380709149,0.028120366374419434,-0.01731048454358261,0.07839418854540324,-0.07612953498057841,-0.06313860779609899,0.04798925389065968,0.06290241103325267,0.0233088105428923,-0.08580079455166639,-0.07646647039647947,-0.04233602023263956,-0.08057119424669404,0.011219840696339444,0.07118987368163081,0.03119348363598306,0.03576054275807687,0.07749438963128685,-0.03838739629839599,0.003828910465036889,0.05855932769548693,0.04109850012737191,-0.021619537629528764,0.024635819095952294,-0.01144914747419583,0.08346850724293282,-0.05330359139445249,-0.009531660820377312,-0.015112712260477659,0.02090879504806579,0.01714676343232611,0.06816802016345709,0.0052588409262572895,-0.01650512771703208,-0.07298421071797004,-0.0074807192692265745,-0.04047311817036118,-0.03292615744731156,-0.04324392473580952,0.047443935305654134,-0.027843796281813837,0.038468315402346326,0.05357039157113942,0.08136953296235148,-0.07544113527008559,-0.013914327410760086,-0.04996573094106838,-0.04592101707974646,-0.037961664000284535,-0.03482660521368647,-0.02759401861472567,-0.06816009724858713,0.0795065823081689,0.04924787009789704,-0.01639522172875406,0.05003084109918282,-0.046094859353904484,-0.030346730923987656,-0.04392680944580233,0.02674986308103455,0.0011982999829223484,0.08258119059591992,-0.06323904044929174,0.06116810340040771,0.04093739235823535,-0.07614961164344769,6.371010297498364E-5,4.73342335990908E-7,0.06502811108961513,-0.02125586009095108,0.04847774587357743,-0.03137731975242283,-0.029321550801316796,-0.04837862793695969,0.026508670284805233,0.08525396129751751,-0.002361070825613094,0.08179863762640385,0.060500226170381435,-0.08502915200419375,0.054607247217602455,-0.07192493336663959,-0.07816175106060927,-0.08136145284324231,-0.07168124713316555,0.033168340521567724,0.068929000314974,0.08091610651748202,0.00388253689700401,0.02890298835410264,-0.06365496805888947,-0.04227503985284944,0.025186524958828466,0.052200671504820315,-0.012514877351598386,-0.054482567696049686,-0.039764347572887944,0.05020908355003244,0.06548462755067412,-0.040237766328252995,-0.08652438850726799,-0.021029136142809983,-0.007211348162801976,0.07272456671139542,-0.003751755728335333,0.04850077634760681,0.07914400222236918,0.06051356936142771,0.02719578410812587,-0.05169324632238072,0.0754422176365088,-0.02359316874779547,0.047452546827847074,-0.023409375455138354,-0.08198771182185749,-0.002268730913953501,-0.060989245149193023,-2.9640473007103553E-4,-0.024425451261749078,-0.0604136777605266,-0.005873617106587394,-0.0013274331325858189,-0.07382356698335281,-0.015008295071120576,-0.040945475436539085,-0.03940786107786251,0.05351548820216602,-0.01802602268253537,0.044159397228363914,0.049383102939337106,-0.005900627965163461,-0.07750001283326975,0.04078388650362878,0.07541282672643171,-0.056009002964508996,-0.03743658426346294,0.010194646614672202,0.04261623072288587,0.02239884398916665,-0.032787465278947735,-0.07694635645329617,-0.06271409018984402,0.04785489966803855,0.03734541719249915,-0.053514690014983976,0.035496211982486744,0.05707005687676298,0.005332189233765732,-0.0804862896344611,0.06451316784097863,0.0712057217749911,0.08583229750289686,0.06935037785560957,-0.060519504419329774,-0.04003265511591286,0.06986714491076688,0.08653117765091242,0.03494492037082672,0.033280493220259076,0.052386120288506546,0.06260648570117625,-0.020042875523583616,-0.08369774361879319,-0.05180122673959768,-0.028896010150979565,-0.03093642622641473,-0.03475308865623561,0.0748369668385091,0.08669075551201774,0.010223567987887205,0.05439026861413057,-0.0632504517353093,0.016366165910161254,0.00590578204776486,-0.07950519888748103,0.007272391605956477,0.08265097908716469,0.04980899140697167,-0.07992018589500052,-0.04003430008238658,-0.07833584840105291,-0.03057715989382009,-0.07587155773030732,-0.05635090369156804,0.07205214548273314,3.3487632645238266E-4,0.026272395074203866,0.023616551468056877,0.020512449240512428,-0.01979891801062963,-0.007357330240722226,0.03053459522339544,-0.06367914048773571,-0.04678495772204115,-0.028379761030086412,-0.05785247993911169,-0.016845611611410835,0.017298469810563884,-0.06765198913641196,-0.06125610860971057,0.015783680296836446,-0.05359649629402999,-0.04869379295413194,0.02168558551601873,0.0542568760517133,-0.04871194141641909,0.07824122172569219,-0.08058909614805003,-0.012242982452781099,0.05480121325517074,0.024351450669333294,-0.013633957728154563,0.0377202899816305,-0.005083291413953585,-0.0861913743504868,-0.0689724315109477,-0.06208134609575535,-0.01671243209931764,-0.08324145813196371,0.026651883982784664,-0.00843750242715052,-0.007341142186782134,0.048097800356964975,-0.07247054784264693,0.06416881130419938,-0.018608896994291184,0.04676940529914414,-0.05313438531303706,-0.03384477292293641,-0.07870539485756176,0.0064561938971654164,-0.0790869459540267,-0.04156636721738621,0.013595151613279406,0.08301019385140215,-0.006906836896864954,0.08488503308209738,0.05229383734905767,0.05452272007769809,-0.042877359226775616,-0.0860408128078628,-0.07591350954702698,-0.07437612360709349,0.007054156100244843,-0.005076705396505252,-0.06792668501527736,-0.027200751273833566,-0.025088196086701684,0.015151374220969738,-0.08567679672801035,0.0047720845413733145,0.014749708028838439,0.02795246809837011,-0.048075423959843704,0.04597844347260859,-0.0699233954217183,0.013102765694101482,0.005697361778149656,0.06723151741767698,-0.043132901197256976,0.02519758842702371,0.03121977676910027,0.01457942004477684,-0.08264721273591163,0.08249856639457466,-0.021058759782896043,-0.08015377341889121,0.037750022475404994,-0.06396642304567711,-0.04177018730208176,-0.03404623169017779,0.06757014264383203,-0.04512974845114283,0.018581679884817043,0.06767226495164162,0.07270070522485422,-0.017609598472726206,-0.061849055781002533,0.06371189472400629,-0.06003182315597836,-0.05322425234086526,-0.08098981729519275,0.08279109478733507,-0.042753062762344946,-0.04319838899924907,0.07567363358476921,-0.0750196343385032,-0.029340394735333116,-0.050640610652209365,0.07248693478073799,0.052269446556309176,-0.04827871469214905,-0.02925927969783239,0.011793085612134602,-0.0711887205401073,0.04696105407151194,0.014016973525760413,0.04984527818818681,-0.003484215180646076,-9.297225179590566E-4,-0.05011203294778521,-0.08569955600548586,-0.06534569929159534,-0.05657080124148544,0.08065621087834901,-0.05535490551579613,-0.013234557412108458,-0.04099519795431003,-0.02101141248336497,-0.03262650274938356,-0.08550320459936366,0.032623007988883214,0.07718515512738648,0.08452880017054866,-0.011602554847850076,-0.041080797460619774,-0.0820052352108854,-0.03371324503927974,-0.05988436382605833,0.044698951351308185,-0.03684813576710017,0.0508394603955959,-0.006630636453929323,0.023684988408138864,-0.0801973696831517,-6.417440111449374E-4,-0.05324049758445471,-0.011719495994977751,0.061507931747748046,0.06310376041603799,-0.04488753434690089,-0.018448473363584697],[0.07545994932383158,0.08131867406106272,-0.06972996507024835,-0.05931180543034076,-0.03461882007536292,0.03900451145670464,0.013844890787844037,-0.03066438891027068,0.0371520130215769,0.0055337723741173414,0.08495333899959924,0.08335700322485096,0.0546120360439393,-0.003855485037338837,0.08186324149260213,-0.05009000645978015,0.0500349217647487,-0.06186814033371565,0.06407049250197641,0.01693420304004104,-0.05652879634214439,0.08199246509388655,-0.027566459680049567,-0.03118365668856069,-0.07885506504660893,-0.01893581541990388,-0.053063636880887964,0.00686217369468574,0.06501593468188048,-0.05554100404008195,-0.04628860106034148,-0.04746384934858728,-0.012624704071259409,0.007508169258619716,-1.706368822799004E-5,-0.051471278876780324,0.04011019779915312,0.02765511345260869,0.051823063599995764,0.02882663393105596,-0.026765422774980098,-0.07965365327750273,-0.0181984771190541,-0.015435931044485228,0.05489518973439482,0.059177792755865787,-0.04216693274612508,-0.04030646552087461,-0.008435352715671208,-0.0695385566987912,-0.07718787546911648,0.045438225045573974,0.06947230449269458,0.013427022022144693,-0.07716621998519889,0.07019826107745786,-0.021093959870809142,0.08078438460737544,0.029960748363056355,0.03789803574079163,-0.0856228526388763,0.054270746211795014,0.08285035176642107,-0.08028159845991523,0.08295656567074361,-0.06628041211128582,0.06629534778773377,-0.07266807780422453,0.005859111293095141,0.0643867703852633,0.040657789922258415,0.058020490987383586,-0.056612935147711936,0.001549649820384905,-0.008031182537031197,0.08077676255785651,-0.07483215017825937,-0.02189901353418983,-0.07224908589420845,0.04825020971364468,0.007538245175075104,-0.03519245114842172,0.015121222331438597,-0.022804094343344124,0.0279424506582515,0.001200724488631919,-0.023404298494579055,-0.07896300755952983,0.08125589532763702,-0.0587826917905174,-0.0828667159153278,-0.07135055896124819,0.041949938060792946,-0.035098426725531914,-0.06276764942076561,0.019376608463824854,0.0044462096850223275,0.02011613741413281,0.010469915531562008,-0.05110007977549911,-0.04258755760056213,0.012547713282950906,0.013379919165957115,0.0690252484273048,0.07635634404106506,0.06789648916797833,-0.05871022867757292,0.027097858173936805,-0.040492596013666574,0.05169346902196819,0.03194147985635948,-0.05498600593249044,0.05094193981676301,-0.0808801809188456,0.004769049757268125,-0.08374617456760831,0.022471988252090687,-0.0036981463076375945,0.054776143869363386,0.014034249176770574,-0.018974776302036506,-0.06240432143098644,-0.007954567032328922,-0.07714841645194918,0.08349507794374611,-0.06718187296692141,-0.07151449196148903,0.07007402297863838,0.012697654357556412,0.0025912135451558564,-0.08483376047563755,0.023299061046502176,0.07405821108391457,0.004179193351463969,-0.058007082711190025,-0.06849963051600531,0.06697971663871494,0.0514126300641125,0.060451709008929,0.06615346939601166,-0.03943127660067791,0.027872724712688063,-0.003910884361172505,-0.03549617349244469,0.008080691163808168,0.030439804165361465,-0.05989243105172944,0.00237207812242246,0.07425036659542103,-0.06854478397864434,0.032774818563259984,0.03893686435242055,-0.08254906776692154,0.008351108379893573,-0.007534375094156853,0.08595360374707058,-0.03614071251425527,-0.030878437731392126,-0.05260600609313964,0.06264250845399323,-0.05105393193219272,-0.04264282919303165,-0.08142083873522156,0.04056564342094546,0.030964148605483195,-0.009081205952954616,-0.06112469328363463,-0.059968613313625366,0.08595542744082309,-0.05819774060980282,0.03599977094299262,0.022768498416872437,-0.0772094102312354,0.035138597547394214,0.06194131667363206,0.06927553750069705,-0.00459982123747486,0.07478043769143473,0.049493097749264095,-0.06165357224877202,-0.06187904523799469,-0.006619569951067512,-0.007538213158189358,0.031883911077289225,0.08197584251214171,0.03167845345732394,0.012744840865809529,-0.022085490927672494,-0.06956011404358454,0.06355589500491189,-0.021681791843037465,0.016338852547600796,0.002480804113301954,0.0015192489437094816,-0.05094114772765158,-0.05953057023526343,0.07484634635856213,-0.049156829962223404,0.02027845131730221,0.0760484231873537,-0.08453044846761862,0.014515549906091779,0.04776767053070931,-0.07230071463165393,0.054875569459907236,-0.013907358453725115,-0.029426106453161873,0.03037883377642648,-0.016684787834434882,0.07150565742837767,0.0848666857856836,0.03313914722843768,-0.030187673771186346,0.013763153124361294,0.02581730305047297,0.06421428478457632,-0.03892278694768792,0.017097901101528448,-0.04812973322407088,0.05143647700109151,-0.02621035007935495,-0.0159365421446129,0.07062365889995602,-0.010269963661962785,-0.01632363026606059,0.023113219606616046,0.036289730679271874,-0.03906454948580154,0.0383309229949825,-0.03512367399232716,0.0051101428204115866,0.07888741726697282,-0.020400295305687526,-0.0471980111466429,-0.02931754939761059,-0.008985336586040246,0.08363697514400568,0.01756548308739479,-0.00652080778821147,-0.01814056365454068,-0.05604714633023449,-0.06096991406712283,0.0038706804561568415,-0.02218027653848944,-0.07008885372681574,-0.04534321922362395,-0.03635159821592999,0.06384645595928665,-0.027186231924797903,0.04808348733926858,-0.0616416005427795,-0.06909325612228696,0.07055875053521718,0.06755957141152945,-0.05861950342761443,0.04558831232348082,-0.01389757596900734,0.02776123717728426,0.04187002271161811,-0.0324981825301853,-0.04557946429823647,0.011660930883568352,-0.026160802870575834,0.05805111098022947,0.011540920085441497,0.02251597545420365,-0.05313108957262131,-0.07303222760353052,-0.07479374039813608,-0.057781834842027945,-0.0600752638029789,0.04276291661737582,0.01946237588900368,-0.02881259837539601,-0.035329653461923544,-0.07974970987664498,0.044642461015094136,0.05219256165584666,-0.07507376159619061,-0.018317623485095816,-0.06853122755894554,-0.06893636894841838,0.07852132606277502,-0.07049350938772674,0.0535855425864944,0.07128346535842585,-0.03686568703823746,-0.027401271182349834,0.07403278324918136,-0.0011959430620617482,-0.060784692441106354,-0.08110434838052596,0.010185354180791547,0.06179317587951967,0.035672935098445734,-0.03851964531196572,-0.05459173288123757,-0.0755175299441997,0.012186732016601708,-0.010774138930981864,0.043742008478498205,0.03584504716957665,0.07888945529117315,-0.004997869068747437,-0.01437996223714696,0.005367590657613217,0.07037532231773024,-0.04603608617000694,0.032183206191481954,0.08005783843175286,-0.040366868347030106,0.05285190092838085,-0.07248602673888295,0.01960302634075444,0.021240637745379227,0.08562340724655464,-0.017432433979325115,0.07911248900371629,0.08396143690060967,-0.07530825464551139,0.02386013669382029,-0.029373026239316376,0.046603917358822494,0.00489530440069963,-0.07641695839607798,-0.038104264044587326,0.08497921691373571,-0.01524650546237883,-0.06929859812748715,0.05035827846082634,0.020916610933996688,0.06139995236646552,-0.08188291752513285,0.005133955701543198,0.06910510328695105,0.018647590099682105,-0.07824129109244744,0.0020374608207276938,-0.05620478214802595,0.04812029938131469,-0.004156105379745613,-0.03468437247638299,-0.02488153869278629,-0.02464968053167141,0.007554009660666714,-0.04468677884560723,0.03197758979825119,0.06459160857683481,-0.0365055581409348,-0.007974328511166062,0.048445427096948955,0.05640507114136433,0.04052749850864622,-0.04646710529136813,0.015003190047881688,-0.022300838021007522,-0.07266278774585354,0.05224899121242126,-0.03217624134339515,-0.0035506133575487387,-0.019877165992771242,-0.020590808024272555,0.07225491050024752,0.08246728808677933,0.06507092834623275,0.0135784476931482,-0.02564552096961762,-0.012079734046096044,0.01866847757902648,0.03755333275846081,0.06828111449642627,0.06197717418712889,-0.011423779302283487,-0.040471990931216735,0.05671464967999045,0.016779832374841992,-0.0016582801198584325,-0.0573257960313619,-0.020569860261880683,0.0573433350223523,-0.02229558584509477,0.0061387826708042235,0.052621997443596254,-0.03387203496948588,-0.011185295090572069,-0.007994353818909861,0.061901692612186206,-0.06353646906907853,-0.03625482190730407,0.04307655925301442,0.07737983097365685,-0.06534871517181316,-0.08542519039861726,-0.037157500322224056,-0.06260407305312597,-0.06995434062863694,0.027584801916675738,-0.0326005335277266,0.0837334253686244,0.08378640553410331,0.019325627023640726,0.013027485221608731,0.019363993299748805,-0.077273275021675,-0.0642002261436627,-0.04740361322165374,-0.0241682422195542,-0.06619947864228443,0.0307422141565402,-0.08597801428028361,0.04122916291332568,-0.053340872825551486,0.057833510444982084,-0.05616254447540799,-0.055639858285675414,-0.0466162203020021,0.08172063259181733,0.037997401437861233,0.05840672836395365,0.08313812724194644,0.08093547098193954,-0.06920473654572391,0.021613121376130126,0.044788633233614275,-0.0545700060538015,-0.05873414123386544,0.07004400655259903,0.04921598339049078,-0.08180529984277154,-0.08041507628662008,0.027871432107968525,0.051737048224441855,0.016470505190810187,0.07955605017489081,-0.04098404367470267,0.05602718052009727,0.0167629374147135,0.03906661324230998,-0.005189927621301268,-0.05164885282244854,0.04172669726576335,0.008218472712204042,-0.003852172432760221,-0.06032866969420555,0.07488541797358945,0.03771151198580409,0.03470238112506892,0.007678169521056559,-0.026932096769106025,-0.06418431525498075,-0.033223319326075286,0.007040261515467736,-0.06696748416775244,0.05268520492928916,-0.015803328746032814,0.04054994543345209,-0.017485207163519742,0.0840579436562734,-0.030056780606074203,0.07409125258479192,0.06451174485645429,0.039961714820448725,0.03157421069794345,-0.0348019923364391,-0.025146542412274035,0.034856974578782486,-0.024356279390393237,-0.06041569029004594,-0.014502517371363067,0.03341351458079613,0.0026367091524272974,-0.04585870040154089,-0.014291678775849206,0.07139224189340611,0.04173618607011311,0.03932751255782247,0.03048002933399576,-0.042956250342300745,-0.026276934033329938,0.044870617411410754,0.018396768387652536,0.08056315610521178,0.01243012876996323,0.017166740462780772,-0.0027182774646756307,0.030096416574591726,0.008902227878044197,0.07909724932811357,0.07135155660148093,-0.018944760709393358,-0.03960529685959559,0.0496277732830465,0.0731796914490483,-0.07639524595623488,-0.047498057389556606,0.03587365690178013,0.06689913142736478,0.07748529567588303,0.005651903045255875,0.07257308882759327,-0.017456772391756196,-0.006203605824976172,-0.02396118428185724,-0.04186308795567334,0.03853644110707505,0.046479075750914374,-0.008028785383920812,0.03240990284627638,0.04412202361238183,-0.011684226168116518,-0.0022210971632721124,0.02175626656598715,-0.005855263220091526,0.07046090091181016,-0.05990095535277024,-0.045956218993985797,-0.07751543366110396,0.06783490373291524,0.0025967014886318506,-0.004676080339467145,-0.06874352090527547,-0.054508330524941306,-0.06593346866203295,-0.0263378983335784,0.07117022718701248,0.08262295133485946,0.0040776416182599345,0.04525318074299354,0.015369649570001172,0.03903320948745638,-0.07505809794557228,-0.05013088383161057,0.05829812073321985,-0.04690117111873275,0.023893436068437045,0.024427962498985087,-0.013830288534281428,0.041012719571359116,-0.026945815509981364,0.011949487627155716,0.07455196407832186,-0.0735996142428499,0.015966398682615995,0.043981014898057745,0.011414902835382544,0.005046865251775711,0.008535291376728222,-0.0037931097287095756,0.05746052885183382,0.023961740365224936,0.02958754431279476,9.84144010734204E-4,-0.05366011900974994,0.04959959691239248,-0.009664348772643232,0.004850011133647719,0.08544894674327828,-0.04884747267250303,0.025600655919901294,-0.022494538961418398,0.0820554999874283,0.03315278112848739,0.05493094238099006,0.02669766964665814,0.08430252556241448,-0.07376024230162426,0.04432087287517447,-0.030159556604563018,-0.058597863621856726,0.059863250705147746,-0.01630947193856324,0.011057654985249106,-0.009332272493201012,0.05243573511552646,-0.07866628102564868,0.060079752209316634,0.04507754100289675,-0.015358685282392946,-0.03013041456665892,-0.08496073278383992,0.019837647959698963,0.07602087838590567,0.03355605565511582,0.02372039490488346,-0.05169589341279145,0.024710905207412547,0.0578311254814975,0.07410096288226313,-0.06398779263092116,-0.06285118777401472,-0.007990870817390522,0.02967523647854145,0.04691860244943406,-0.028271339786558596,-0.08005238386361961,-0.07681626171459927,-0.03482924793004768,6.669982761711811E-4,-0.061863920556076334,0.06641792581117446,-0.046002453075726674,0.0440240800493351,-0.040879802726111004,0.07830063063916361,0.007662621686513415,0.04843264215659055,-0.08177469165969962,0.04042333300846816,0.05386337402414189,-0.029295258951340112,-0.01984933193132507,0.03440989408943931,-0.07719078657174194,0.0428531670675895,-0.050833660546598096,0.03885522327721153,0.08045212920612102,-0.0668517054261929,0.011558733390451872,-0.025827397781096016,0.08359699434963398,-0.010530175084947793,0.005873465955448073,0.08356241868593407,0.02938000895587468,0.055340870888702674,0.025843815299595885,-0.070652818404981,0.02972641687338745,-0.029827142850451693,-0.04167824335538181,0.015810123502875983,0.0490428749359224,0.015140274725975126,-0.06128758435344622,-0.03781252737002217,0.025847043386489413,0.057801688085595916,-0.035833728774315114,-0.04331616105535241,-0.011466615947291562,0.08345178259073578,-0.038561453595239575,0.05719637834420007,-0.0056872238326632265,0.06877009925007166,0.008818406203549215,-0.014044795321237669,0.01472563712367637,0.06516935198620809,-0.07487084052938031,-0.06104091217843828,0.051499227554111154,0.04008003931196583,0.06696077191491112,0.05017483659319438,0.03008967626657478,0.06635763780502621,0.08182282932005307,-0.03480792529740535,0.05830029843018991,0.07539404825215976,-9.495413250549503E-4,0.08438064494893027,0.03980337951937485,0.05615451801352231,0.003243370398094045,0.0740131962261939,-5.360953546928381E-4,-0.011804518894864424,0.06395364110537075,0.06183301291375738,0.03347719676824198,0.057881844804714214,0.039004522405571826,-0.037528981356100756,0.08449517566116156,0.042885703907510744,-0.007154647990016386,0.0019609344082228996,0.03306736931525077,0.00536900232856292,-0.022181971589337473,0.04200469325749503,0.06792855425549064,0.05464533494929002,0.0033854985827382364,-0.07756863532209289,-0.01535848380910304,0.03489570745872573,0.07451586882405928,0.06348776892466827,0.04999353991170702,-0.043833309578476747,0.014085832055768212,-0.01896977421707825,-0.02766305752889277,-0.010651162121104963,-0.051904845776527896,-0.025828546718845845,-0.009303737039908883,0.062473468137086284,-0.08558318964942975,-0.01413684336432278,0.030940725124312434,-0.0273866654246517,0.002926022622936854,0.0843462646341801,-0.0218628114763024,-0.06597789564109745,-0.07817824699489649,-0.06650686000977263,-0.0575333321245206,0.007078032828169138,0.012871099519091822,0.07372903765318338,0.036720958681417434,0.06390227104496875,-0.0698947215617732,-0.0015786534540536328,-0.020568483158949165,-0.07804194626692709,0.052060764572801906,-0.0814087078612787,0.024807842674543595,0.03718940532258293,-0.07593009416849028,0.07071305148624547,0.03151689670502669,-0.020459399627181515,-0.05949012026876498,-0.08342257093190719,-0.021333161839485224,0.023000959850292428,0.04293925800413721,0.05650390850219573,-0.027610420803156142,0.014173884411013771,-0.01483529527717651,0.03245251669047736,-0.0503381381835585,-0.06254755835722142,0.05693069938088187,0.053661155997547186,-0.033428641964034535,0.07713404623474683,-0.045579645755586116,0.029552908022418695,-0.08265130806656172,0.04783062011850738,-0.03652239452535127,-0.01402333671473959,0.08170585673608328,-0.04567868011130896,-0.0823481356222,0.07443946918509438,-0.03900836258460055,0.06677723149561128,-0.0570281017613968,-0.0282875407965411,-0.07334837321099989,-0.043445691170520676,-0.04756050832385548,0.03196207858523491,0.036441755841382616,0.015132672166784048,-0.07630876402193636,-0.03657097392897391,0.04928517329292322,0.08222162727462741,-0.0774303325072177,0.01956677946518406,0.005239688681842285,-0.012101573073094092,-0.03618505584228313,0.03919656480423568,0.0860398357776299,0.007891528221961116,0.08065226132463972,0.03250298780807591,-0.04312699067019572,0.052975707461821585,-0.023616896005029746,0.027622172374794907],[0.08588705995844927,-0.02884877383879313,0.0594697203896284,-0.08098584636877443,-0.04287267412505693,-0.06987561663847597,-0.07914638439175298,-0.08552819449937628,0.008558368544826226,-0.022875615696588837,0.03528740091698199,-0.08233493310572482,-0.07684786297366009,0.07996735220655003,-0.08229742264608415,0.05261165296884519,0.07900367717684781,0.055822042182712694,-0.036194319345603944,0.0039033077336464443,0.0014851046514957513,-0.0757181119902901,-0.052265499764211625,-0.04067610120690718,0.04038713665841701,0.06116254582729769,-0.05538700084302278,0.050008699668543134,0.07765072598259648,-0.08097272063571782,0.05369618781176533,-0.04855278729812533,-0.04365234545245499,-0.06325056053940406,-0.06322067103342174,0.02804204179446935,-0.05908518860635413,-0.046024945750342196,-0.05706176191280187,-0.01637879986066256,-0.05673105973757487,-0.014645815791449298,0.011753112317903948,-0.06926944909409971,0.03128902776675269,-0.06119896690475147,0.08205933976956452,-0.06664820802967529,0.0640378165262864,-0.007313505899861881,-0.045335530354992506,0.052905925963093736,-0.0026860199314564497,0.07559547986136707,-0.03529844601119749,0.08333215110865225,0.03634225240790403,-0.03700257984798163,-0.07117199517501353,-0.008890870019224189,-0.025241330902390925,0.07493804431747528,-0.05230659804346163,0.018066326653388233,-0.0034080780931311856,-0.01709112479723354,0.04895518694263297,-0.07873747803888509,0.0028149464071483355,0.08089523451447421,0.008971223472958914,0.07967584979505178,-0.06849496080166029,-0.006869088058711451,-0.022739081627376846,0.05184527029003048,0.0010134501895312366,0.0699482207797037,-0.01970378337234397,-0.07486603750137524,-0.005147494890527229,-0.07301098284754776,-0.02722114383399633,0.057896915192975046,0.03994808531919162,-0.03119222156580596,-0.08073175675906054,0.018295266491907082,0.03990075790284358,-0.011840502133309517,0.0845575468804369,0.03918144358259658,0.08188486951285501,0.046274052813999766,-0.04915212499355904,-0.05333749061401049,0.054606022500208136,0.0032735810617167157,-0.005499288810855374,0.05114652582841046,-0.033360490179194645,0.017009104126230187,-0.08377622756791397,0.0134559681352608,-0.0409413568903153,0.06938112183533708,-0.00978351611864449,-0.046761614252243025,-0.019097802941931953,-0.07690357381875146,0.001571289875879262,-0.07693050626826713,-0.02054381969418869,-0.03855548057328807,0.06522007526508061,-0.003705988658206573,0.044713998322462575,0.07473920523308679,-0.07930556871221761,0.0010094537136242393,0.021411130380619686,-5.676604637391013E-4,0.07624183905897257,-0.07522773918679486,-0.07750996181801066,0.015236115029167236,0.016799934028614773,-0.05217817982417076,0.007325618718899512,0.030218739759469617,-0.05171744341395072,-0.0754061601042583,-0.034652145861015754,0.08432176868842614,0.03724559004271174,-0.03798146267983033,-0.01942382481509952,0.014458346190974717,0.0033236642515560686,-0.04453143856667304,0.05310023176814461,-0.0624750047208383,0.013476928999744791,-0.058323496515493026,-0.030832911158961786,0.020705192212990584,-0.04072244563073094,0.06652369932868343,-0.04374157864885574,0.0016183598324463898,0.06553037611736572,0.02419057775320509,0.0034145109285166936,0.020970359743467882,-0.006574960698557529,0.053688275659737675,0.05838753290000179,0.08440709244939912,0.037617244614062594,-0.06778035523071972,-0.07787370197426555,0.02992638011844237,0.07530465704838525,0.015133398561511538,0.046985154354430764,-0.00925547796625932,-0.04758649203985866,0.05527340626520243,-0.009437542470936693,-0.0026177003780387866,-0.07688422853937854,0.04981597275375844,0.07181538248940827,-0.0843976816604678,0.026617129906385765,-0.022358789395391942,0.004723730265589281,-0.04011058697185104,-0.03990488311664403,-0.06052212897959368,0.015551235218425783,0.045473693188629975,0.06750066770055335,0.021656151694799466,0.029998427995982412,0.04148906046273917,-0.010208555656503988,0.004233809596275287,-0.004515816851555048,0.0018362998317171897,-0.007800440771012465,0.006340931410889008,0.0593974069296229,0.053555066268799224,0.0423951433314424,-0.028330036003589916,0.07694727079638043,-0.01587952373764609,-0.02342676095613728,0.05334268958916858,0.04188245515174133,-0.05051570603756081,0.02539747279337763,0.02984961254982224,0.023427023835366323,0.0703518533278014,0.022244527713841382,-0.016465549023481477,-0.031212999672516423,0.029115174051362422,-0.0028721679760312633,-0.06907210206659063,-0.07657134626611127,-0.0015350095397406967,0.05364863068679262,0.051178513708813746,0.04260408897738691,1.1601435624284198E-4,0.01910242007814094,0.0764197005845519,-0.02964013924410877,-0.06075621839507427,-0.08253971474307335,-0.06488408575986021,0.049827762180138124,-0.05398022294047742,0.06566668693182406,-0.01859737106097199,-0.048161213395905705,0.08679273949011794,0.04174223199811999,-0.05700417452992741,0.03740171684650961,0.07671456149476054,-0.08388321354287828,-0.012993912422336404,-0.017202507361771868,0.062093443317817285,0.0851428329191431,0.05295852327074788,-0.05116678025200587,-0.01138400215117543,0.08415927153720751,-0.030186170155310534,0.024253709346149434,-0.045692489430785126,0.0703830040199653,0.06734515612395797,0.04498604056171145,0.03663340957004112,0.060535770537831594,0.00739485358303794,0.02602353084198727,-0.026196240854156273,0.02045435532698305,-0.033891813279496315,-0.024760439292316624,-0.044514880998101726,0.07940150475003029,-0.0678912654331824,0.025003739030276154,0.07745750432021843,0.04246947102187075,0.01189828130966071,0.024155025352436577,0.05849158105657154,-0.022297629525263044,0.00864821649541613,0.07546627354117669,0.011464908074129745,-0.020172519481779075,0.05199982176388969,0.06004240289391012,0.03291498427598218,-0.05294791367353212,-0.03962187377549951,-0.003644019834482966,0.052604840542629906,-0.08679688102438514,-0.03963616619438808,0.018338373350929374,0.04244403868678996,0.012114435449178946,0.05882833899439961,-0.0021988801197699226,0.08449549203491963,0.023172271786195905,-0.005161231898973945,-0.04236224850883839,0.06895421952148464,-0.07527379234430727,0.043518712472528705,0.004987332060819868,-0.06114811026321178,0.06922110931560901,-0.07111742520024555,0.07178626069075528,-0.0026753348548205595,-0.02063685873200107,0.08485804448564466,0.06137923683898157,0.025485940327593357,0.0698276636412819,0.0060375174113344405,-0.0020924732830821724,-0.044389985406080384,0.04287367290374969,0.008051136279235586,0.056250481807727536,-0.07560094572338306,0.08269415810511585,-0.056602106744044506,0.07792372644961224,-0.03367989144302148,-0.060640867076417866,0.04344133031637965,-0.08645604026945061,0.05719423740228049,0.036658315760923384,0.08535856999859014,-0.03461190025912214,-0.03037098209952918,-0.08301028896586506,-0.07597934810080229,0.06540596204543483,-0.03494407487095401,0.0690242892296576,-0.08671026891857664,-0.08461679083354688,0.04721030836562081,0.002483688276002348,-0.08495835181739071,0.06782898207460114,-0.006578138490873706,-0.040801977136080525,-0.06994533324274868,-0.03959626677018366,-0.07629257910482143,0.0625191856736985,-0.06991472782717033,0.0674595911364457,0.04016775551614453,0.020955655264834443,-0.05385207196055844,0.08370849420738548,0.01776103315990648,-0.028979151662644167,-0.04500305392317866,0.009863145927424675,0.0563862076716693,-0.0711936689065889,-0.06620979652830637,0.03429241755609916,-0.08156713364248343,-0.02134769356576272,-0.07040812462663339,0.07483378864107985,-0.06251513518715364,0.07062971134835623,0.024553686507101193,-0.07044113343102117,-0.011130893871434806,-0.04311303124231489,-0.03338254871524805,-0.012913358458692676,-0.0036682059779418693,0.04962184806848003,-0.03147121769616067,0.014590841684485,-0.02964101788534292,0.0786718003331289,-0.05126796419047759,0.055925843918510285,0.05273428830821681,-0.06623792910230368,0.07390077484687095,-0.0287233573741147,0.04125350903335206,-0.012239182654852684,-0.039483898803061426,-0.008213280717967623,0.02210437060597998,0.04636232631473031,-0.06989681902484662,-0.04131698790439791,-0.0323290048706819,0.05498326015121115,-0.08429953819476318,7.107968632253799E-4,0.06289315527867727,-0.048992793268088676,-0.04426258834924233,0.08490166143868523,-0.016159368077041658,-0.040795498458664335,0.0819057962576787,0.0742075642840945,-0.060194211813223326,0.035474432877017764,-0.08616202537710992,-0.027063736820970685,0.07733494358561653,-0.03939862365123866,-0.06657881875899987,-0.0770215712942282,0.08030193434720698,-0.017741579715389002,-0.003986299191743679,-0.07339975171669805,-0.045611069692101484,-0.05758012207248117,-0.07728678404289618,-0.05124805790411162,0.035985691842683014,0.00735729158643391,0.009570505205770324,0.050616070148787544,0.0035132498270398676,-0.06024609702956317,0.07064112715765826,-0.0491378471585938,0.053721269320500226,-0.06577948120507407,0.028948608968172994,-0.06530818815514619,-0.04979473556151439,0.010251412289662424,0.07597987417290522,0.035276248231782534,-0.05910361179343844,-0.02984185367544386,0.019442294041402054,0.066513160806846,-0.01657607379306923,-0.03913226044806989,0.01275859433434798,-0.049309092431983705,-0.04562831920081019,0.0755165058268417,0.08318008488375148,0.01651088896339235,0.07022316916261302,-0.06417615375292769,0.07303390668376075,-0.007334375854064114,-0.06982881138402701,0.025705260335884605,-0.06976068448555447,-0.05537511507906787,-0.048970637653312214,0.04785466245424467,0.05626859563085247,-0.0035556504734183827,0.008583586192084314,-0.08191725329185433,0.04837579743610933,0.07547994767477775,-0.04869702880898201,0.04340087508336488,0.04398713078046214,-0.062893110880197,0.030391334819928836,0.08538841763034961,-0.020818197123900564,0.01645406602005772,-0.06924353833520072,-0.023651952441397367,-0.021849264112729826,0.024392047197943415,0.058342873386025895,0.07029855962059718,0.04432460463337151,0.037033269516443805,0.05342621756761992,-0.04925485759281338,0.007423380563833129,0.04053593900651186,-0.01650184365866226,-0.05695151356637838,-0.053069218554520875,-0.034267947220708514,0.07489410858102451,0.023562423332485802,-0.027129123833750015,0.08112437184607961,0.017555337122838466,0.030504518890462143,0.03742406140661297,0.055275465801576565,-0.008746870872968472,-0.025218096895936255,-0.04517142285065221,0.002525684402261009,-0.07192784694546114,-0.053560390580869616,0.06989645203286256,0.08171367327646391,0.05265766363104893,0.05754988221589276,-0.012592045577483363,-0.06107017452886321,-0.08021605122104213,-0.05068033667377748,-0.027051801376011837,-0.01666912410518848,-0.07240465549621905,0.0662334673893081,0.018749794274723678,-0.06866337892009552,0.03808965170221692,0.06728858462485947,-0.04575347152780714,0.07891311122822357,-0.00633897574248522,-0.023285438227971033,-0.008988008173745735,-0.03694666278687963,0.05422359726150628,0.06278037635847536,0.06323785236266075,0.0837570000610314,-0.06041692760568583,-0.08384625170904171,0.08394233522489115,-0.008548366399094667,0.03309682430405611,-0.047884968118391186,0.04783697083994614,-0.07151787439833437,-0.05412522286381408,0.08615781987721606,-0.062373397608704535,-0.00806547560006092,-0.007195323546439314,-0.054965170209872335,-0.07219290980067032,-0.004864761957463664,0.001276274375509572,0.036489457152550774,0.03587893590770449,0.04187768027737859,-0.01496297331915791,-0.04768787356358658,-0.07632980771738682,-0.009150510673755049,-0.08642684338903747,0.002199600281451778,-0.020747902080241312,0.025626737593850656,0.004935154717500917,0.009587092676960247,0.08176141096118947,-0.01873960447672087,0.01746733068947319,-0.0835061718926208,-0.04075806805071156,0.04354376525976569,-0.019237034471051396,0.025105222203410358,-6.818636118444109E-4,-0.014113342590519848,0.08320878458906882,0.016018744207182738,0.06976264829222717,0.0050957365793114105,-0.06995372549085213,-0.07719557225989893,-0.08262329729196594,0.007040570952787962,0.061357592192655915,-5.495665942331354E-4,0.06340230590299016,0.06953433640026141,0.0160650253721833,0.0058893393938439014,0.05024819043706045,0.0750506231987095,-0.0025074570463248656,-0.016331525002770856,0.03559158088683809,-0.08136141870105518,0.06143881422218304,-0.011280270590271431,0.015740456181065936,0.05369480251028268,-0.03549657045455167,5.81787531954283E-4,-0.04916546874988041,-0.052372057986096926,-0.014423719161281726,-0.05030042125595134,0.05708981327962592,-0.07372115086382817,-0.040638943148769084,-0.04388713297016007,0.04850488627386711,0.03484260747895781,-0.029637248585163423,0.020798354025692904,0.004270645516857784,0.0023982952802842645,0.08136040841795347,0.030840806346050537,0.07311366782868838,-0.05571304249573168,0.016944419119790693,0.059536219959748594,-0.021220365042931944,0.020913331600428336,-0.06837390748461922,0.060593776925664866,-0.024666053331500522,0.061020364593995804,0.003438006264316884,-0.010199835312132923,0.06151988208476397,0.06873618644528494,0.018150980729176237,0.003940210542223146,-0.08076911475388246,0.04634144788729474,0.009081699193364995,-0.0791791423385958,0.06547660673644577,-0.041917952767076175,-0.05261017817697696,0.08600886278400525,-0.053094511407871026,-0.06835636579502673,0.07452179055436635,-0.002248871093931596,-0.049906053933304405,0.06540036617332634,-0.06302631552759809,0.014428214350424401,0.035425140072936845,-0.03028204081814992,0.08054944418345161,-0.04775276492139666,0.0728093464894688,0.07417561469224307,0.055857480961062835,0.0018102777970057736,0.07215937325928026,0.02397710568058566,-0.03581673277124137,0.017751363012137082,0.08425771457342138,-0.01599240163022376,-0.028393454679302026,-0.07858001040200699,0.005424916662178925,0.06667074144106869,0.0822214090475784,-0.0439286155229719,-0.06578453882399661,-0.07200577845252777,-0.002152387738618577,-0.021749180387289527,0.06734531032363045,0.008238463549192337,0.03534537162013513,0.0733197991073598,0.05630296118935494,0.004806866945634934,0.04664877477501889,-0.07543211773184624,0.04334137184421874,-0.07246829476750367,-0.04542713590687049,0.040553589338031555,-0.040299307236273105,-0.029994451975385156,-0.060624127002107994,0.04844085183743258,-0.07217357671867573,0.030369117831530353,0.04421418270843162,-0.004032277401010089,0.019069074611101525,0.05814196800240896,-0.04289420180361851,-0.05047243745509298,-0.030533128674932648,-0.04293010780636,-0.03801385586265876,0.01038757706107022,0.04154367263676317,-0.05521082842696972,-0.01847281293070191,0.04235883061045795,-0.01715325915813448,-0.05934143206745281,0.06415227012567003,-0.026667307381711112,-0.005022343289717157,0.04624340096546912,-0.00828158588437466,0.02333849263375518,0.021007231039744015,-0.06254815538539037,0.025785407644761206,-0.036054058399870484,0.029066574198742093,-0.012373798691685233,0.04529507448678686,0.0063909628748142384,-0.010366313816197842,0.08038250928874874,-3.1650247844315535E-4,-0.04373617004990728,-0.03373118411410113,7.849695212000352E-4,-0.011396351030715556,-0.07404901649889803,0.04257744859105127,0.0033144108146964395,-0.042676828778122206,0.014331161516912397,-0.05002127609496198,0.023453203661808766,0.08480674406739434,-0.02688423585668918,0.0670274533678785,-0.0404321327563911,-0.07622632582344462,0.02913385414553364,0.037981350839104054,0.04711280047558982,-0.023632282998033743,0.022127730882852227,-0.07186781805565533,-0.02866496800065434,-0.0025044136612663356,-0.0027067479535002256,0.038643101857331864,0.01861403927567132,0.035410514881838134,-0.06409292873685354,-0.05673303785484275,-0.057511430002067106,0.06523045564274882,0.062438840106678294,-0.030825865085140243,-0.05065185333299025,0.019155916887653477,-0.04960220875076809,-0.03750023334861402,0.04496639070021344,-0.008487582417637992,-0.017202725481882106,0.06155598747265361,-0.03405840813624026,0.06246136716885433,0.009388447974434161,0.032923965785550166,0.07733999441034527,-0.07366814264181389,-0.041915850065002966,0.07380987001346608,0.0798929873885529,-0.07637274681885108,-0.0689754708004119,-0.02907079638511364,-0.015497275507267694,0.0786594372961862,-0.010757251115133157,0.035446263984823353,0.0656816181972358,0.05817809173069759,0.028747343153829274,0.025030758517670025,-0.07896969397905049,-0.04077434738128747,-0.03652265828228599,0.01175009778634953,-0.00941383194769948,0.039175356296408344,0.022156022128103966,-0.046909569381914845,-0.021391178719531192,0.059165973542927304,0.02170568644162772,0.08491351589122877],[-0.03606690219697736,0.006583986431791343,0.08039617033638612,-0.06497529948446111,-0.04311838484668149,0.049200061743212356,0.015058233353738022,0.0022483248186567243,0.034160549694549625,0.05380718152162027,0.08549831955546,0.0273557390490058,-0.04653697766290779,-0.014539178140878392,-0.05932382167265486,-0.0854292188748567,-0.03326688895885389,-0.07599445692412447,0.061375500091892854,-0.050178462467270556,0.08454728291333741,-0.08124754030171522,-0.032449621529189336,-0.026793475099438288,0.014654993537684393,-0.034751760769175896,0.008327363332890834,0.0604117965103226,0.06963815976774647,-0.0343047992363539,-0.07381474893919784,-0.01160099005812496,-0.042274465698445396,0.028982576665253806,-0.03167188982791094,-0.019291704283209046,-0.018732280002203602,0.06647321735446265,0.07939854858956244,-0.002133319445912403,-0.025881660560869758,-0.02760475301543274,-0.04879572114438981,-0.06552671828492257,0.027144541825762838,0.07566479570224335,0.016608179958596883,0.022091277224610153,0.03468612842318638,0.07146598155494517,0.025624508938486935,-0.02575301217048653,0.07904216651805815,-0.014112709555901229,-0.07886530622296196,-0.006821635312334927,-0.06989956646869962,0.03025675844444906,0.044751174767039104,-0.04679032998812154,0.04842977350188651,-0.05093142160910648,-0.07037528967680903,-0.020887808621460245,-0.04568997073839503,0.02209095968144883,0.05090489475734322,0.05622623379325407,0.019317156003630567,-0.00866391979360723,-0.03282787621692151,-0.013594131447132741,-0.08014264262074251,-0.0788459767642017,0.07901556412103816,0.04168801833703118,-0.057444022759976114,-0.004502716106843122,0.03004452542472639,-0.043368730116038666,0.041666138012586326,0.04105298023329439,0.032062449695025856,-0.029182332398767396,-0.04084858898859064,-0.033307618519384796,0.041640910900037645,-0.062309739703745946,0.07539759924381731,-0.02308556226484566,-0.02082102373897096,0.057322866732539564,0.06155064175410479,-0.05864761048273411,-0.06276464293628099,-0.019896050827875066,-0.026607327641748488,-0.06739873986238128,-0.023724136068468574,0.0268749772899295,-0.011269042200458173,-0.06223619570253861,-0.02051168395761244,0.03632606264292224,-0.03804632220059769,0.017489378754423433,-0.05066113726960356,-0.05788047455869502,-0.07632692754529857,-0.0868958377233975,-0.07647851756543761,-0.07518515459798888,-0.055163219136435224,0.014319062562549669,0.0072790463190789915,-0.023999705585616336,-0.020170711418030673,0.08020975200805407,-0.004294499318962955,0.0322836847464237,-0.06070859052794434,-0.08467149503619249,-0.025961636099182266,0.0490606862098659,0.02919166874905448,0.07918306796337658,-0.06369782873025849,-0.06794175595951903,0.027583711172425425,0.07390089730832909,0.06639622383496946,0.06758179083595671,-0.006423133954171229,-0.08097794237327566,-0.046317638966774606,0.04111814892667655,0.050941710068790516,0.027778211536478806,0.017218059322360302,-0.006265493751825613,0.04574053099557597,-0.056394244452866976,0.059956851564838265,0.057062039225613474,-0.016878193601128504,0.017822537334005746,0.021280947823450257,-0.015233521667839813,0.06254339501889063,0.050158179779694716,0.05880107144179152,-0.0851135132929638,-0.05167048908656968,0.06815506090165233,-0.06623129101842493,0.08218813460829266,-0.0435290478159373,0.052809999183218395,-0.07005766486725166,-0.034669433667135985,0.014018351041481778,0.021173743217311837,0.08511371789588504,0.024633432352703925,0.06188236535380806,0.03487455386341858,-0.003922268181481145,-0.029938468593927778,-0.013095864974089657,0.04987270553811487,-0.08525018593126954,0.032178703115920755,0.02236865060384087,0.020674315856167833,0.046624021142672015,0.00965890354052393,0.05883683649513553,0.08062752298264284,0.04437302962539852,0.01055005907325554,-0.03419887068576279,-0.06743841549136723,0.02207065907544372,0.012343647627522549,0.037373001928964394,-0.0036307251511213637,-0.04135846950149831,-0.02438076938354597,0.0837121236049202,-0.020851406982975385,0.0020108818100754962,0.058555861026271076,-0.008438465827474342,-0.05942629982826632,0.06200246229866377,0.056445024987409324,0.009793627709854444,-0.07175406708612288,0.029640337092273785,0.08211079985311062,0.025437189176645038,0.03914669092924674,0.015541953704414278,0.0016485864050168886,0.029303216146937126,-0.027998695497675235,-0.06977338030863414,-0.055891315156233676,0.0781093528993748,0.009421386781878231,0.06151733294253365,-0.034244219297447316,0.06192716295374464,0.003349343310205225,0.012314480559928976,0.0010676868825289353,-0.03415148446694748,-0.0156897546652451,-0.04882414383563572,-0.05758462274232377,-0.020637624280728167,0.0023798328946009802,0.07193220983930493,-0.008501447489453782,-0.00846359790174057,0.04726025534559551,-0.033062187640650414,0.039702302580861465,0.03592529819006852,0.08633223066401272,-0.08042919095275987,0.0206993919649346,0.03704603012079174,0.05584201754632346,-0.05372873260168227,0.03614421166183529,-0.0357565258809781,0.06034269964967427,-0.015615216566114417,-0.08305669387906792,4.2752212807005934E-4,0.056530338493344975,0.044265964623113156,-0.01567558252579583,0.04996631511793163,0.01995150863861581,0.05729720627958954,0.03040186172270492,-0.010178038724474063,0.02391410853938545,-0.035521752979555676,0.01573258063031804,-0.004628284442858631,-0.02841091628134497,0.04036462262218417,0.07840709117751456,0.059381031124403495,2.3185809359018152E-4,0.0014814019868987659,0.0035777804161170744,-0.02512322418533693,-0.06781688752047065,-0.08577912196077314,0.02120230593170957,-0.05845305018735817,-0.07708247189684253,0.051344626070137706,-0.0602242613859742,0.03405957943518747,0.001808707253282307,-0.03381891073207622,-0.05217104872910119,-0.029352107043208592,-0.05858604827064872,0.06341256716520263,-0.040865178469855934,0.032705663494457374,0.06983852331976363,0.01741294512234669,-0.05455221911976454,-0.01845412980597276,-0.05772106473041116,-0.010950983159042185,0.0017053080966635222,0.06841254681151374,0.049188741467731716,0.015025034643639754,-0.05963791241511985,-0.028505608600370057,0.05018154459109278,0.022840641778461124,0.05145830379417982,0.06560054893089516,-0.07803849804717308,-0.016796743610257254,-0.05653359325312111,-0.04488219795524539,-0.04773008569087066,0.05837714901067622,0.04889000932406099,-0.06549128747465958,-0.01355616875709693,-0.05492467997730927,0.012796947424845983,0.08027538451924024,-0.03294431028012471,-0.08287411511325178,0.05971900607546417,0.012042562520103514,-0.058158726275513994,-0.03732797727107935,0.009666967235984673,-0.08194854856163915,0.0713182013554926,-0.07254383157764115,0.0056146985853430965,0.03411495257746284,-0.07464492645721721,0.004704846564935473,-0.007236253835173565,-0.05698052479796749,0.08185059485377397,-0.01757251702893076,0.008307730492003184,0.013359385876197411,-0.05897315353712332,-0.01439230997301682,-0.06160575108691857,-0.04780186362024336,0.044836964248526505,0.07638097103915514,0.047282271663201605,0.07158540042798844,0.0010506551058691836,-0.001438867867945752,-0.08566665926364518,0.06083170600081165,0.004708679270431495,-0.04466022653808121,0.017889946045500447,0.04785219523882363,0.08520536604882026,-0.012561025376901583,-0.048267540576669224,-0.06471875274363095,-0.0705833916712069,-0.0690655725162788,-0.059683903015767356,0.047048569113899825,-0.08556277457531476,-0.0474471476978772,-0.07692564777928809,-0.03215060634713107,0.045257717673186273,-0.0690332217208418,-0.03387218244975973,0.056847698819402666,-0.015756519627513912,0.0564824152488931,0.0845554308384653,0.08193543723461548,-0.06880134001209401,-0.05564338333130976,0.037213268513206936,0.016607759876437235,-0.016272423893058382,-0.07807738432435868,-0.059878870243028536,-0.035833533788701334,0.011733659439819126,0.022303898720467476,-0.07655699948213347,0.016302743587476076,-0.048334159941750415,0.005836732768736789,0.05112066592010749,-0.006073822226929362,0.005814771953751781,-0.07679081381597434,-0.012601760992852153,-0.0393337567773591,0.030211534113420032,0.08060351696214774,-0.062344749434681636,-0.08295140707327632,0.03962408807036165,0.035559029695848184,0.03101345537578365,0.0418763880383744,-0.06655454124786205,-0.08084027679068831,-0.04875359971051742,0.08343956342950506,-0.045234982972704646,-0.07859109893089895,0.0836953320938362,0.08046522336655158,0.0031615455457547534,0.05536938380995641,0.02157403257679984,-0.005689029300286829,-0.06679327369692596,0.049385186881344426,0.08413791908089141,0.030223528004397895,0.027446164418692978,0.07271839523378928,0.03183633506175438,0.04285795196359511,0.03971082204470354,-6.36534490834492E-4,0.0015582254959451954,-0.05781391694032557,-0.030132126773454025,-0.0822860250306789,-0.05578091641900859,-0.07727452100091328,0.03443550274373901,-0.051880303260220584,-0.0141865229756189,0.03541941821170939,0.04959439449882244,-0.05851713624904542,0.0015953007299608082,-0.030453115318985376,-0.07931410109504011,-0.05199741486888029,-0.07282118456709853,-0.06063477107388405,0.01669783415821682,-0.0477307088839085,-0.038922792440178405,-0.053176434290378945,-0.049829470538225736,0.015387114633804906,0.013455255716633441,0.0015627777795974415,0.04414315028883055,-0.034029732115927344,0.06432616277515277,0.05998628524628741,-0.07155704395624148,0.032173584231629686,0.05665635393585092,-0.05086265656363162,0.047222660785084185,1.254810229327205E-5,-0.06948282252877885,0.07394065652243319,0.013054212243782434,-0.002187321806989764,-0.06216369214964775,0.08021721800146406,0.021269534312619954,0.08396953882210753,-0.021725035808060907,0.04292435964366232,0.04275685816438246,-0.047666233752619955,-0.018217028668015636,0.016603285305282094,-0.05305477654905295,-0.05079196120949179,-0.06964883101467262,-0.08299708450767619,0.028658436458437703,0.026261092929666927,-0.033869084220955,-0.030116156119856366,-0.04084993073604825,-0.03897054388528487,-0.05851920456823253,0.01441798665907611,0.0031863240712013776,-0.050478568646812695,-0.03423239515032442,0.04720006181977629,0.025494520399255573,-0.07322414616215642,-0.035544802856803816,0.03657583493524838,-0.020805304531886733,-0.08526331982074724,-0.03730711138401326,0.04664078470746968,0.0023519640691855186,0.04137389299776226,0.020690320833390268,-0.040362553758329325,-0.053596525360370025,-0.06102203347758418,-0.026692934626047722,-0.04501934897342142,-0.05785461224383916,-0.06841050068555991,0.08391870096851649,-0.003710719018212507,0.047840028968972916,0.0020538234313986197,0.06579080098093107,0.07317227697398432,-0.0867687816705337,-0.06681219856200585,0.04904869113197102,-0.08055112386978433,0.004301357991604214,-0.03342083607450982,0.018589350449932134,-0.033314941497033373,0.015992011991214305,-0.02080246742289782,-0.011887394872108341,-0.05837709266300376,-0.004836435424555551,0.049540613861054496,0.08055900685215357,0.07039559103161622,-0.07130231297805813,-0.0841061743244231,-0.05738317504278117,0.06056576082987652,-0.022322833142887695,-0.02908483701812466,-0.061868174830756385,0.006547275021041849,-0.01179320866655691,-0.054281725997859374,0.014263603080316028,0.017964696366287315,-0.04611974480371136,0.042259779342017155,-0.08601714405336633,-0.01539281202846803,-0.07540193853947291,0.01873453465527253,-0.07869168913494236,-0.07953887453980399,0.046332309544596,0.041226977356227934,-0.049168605212437835,-0.017023246188898104,0.07346480106550762,0.048267211971473524,0.011566142148650739,6.924625999331536E-4,0.08227552268362624,-0.07103093586700138,-0.0400297492574986,-0.05987061824248406,0.020459252984403875,-0.003477717530499323,-0.03204280417212612,-0.0632986719484212,0.08408021398547792,0.010887219912115085,-0.07537633651543371,-0.06714844669484273,0.06408065292354391,-0.035460255741582736,0.06677819347372561,-0.051582328757773584,0.006967667429829445,0.061221850217092304,0.013637302402961913,-0.05947044183931089,-0.008722878228514147,-0.08401729106347088,0.06198113780967446,0.030805983857795982,-0.04751260112420296,-0.06355747203363729,0.029258120986730085,0.0029615082671918015,0.04497537809334914,0.03710615151510537,-0.016885987228736132,0.04623763982766796,-0.07967831761367151,-0.08540398024160258,0.016571572790330627,-0.023975353533514526,-0.07651656054454846,-0.04180156153231966,0.0077132737946876955,0.0673472494974483,0.0059471306317108895,-0.05205297839629061,-0.00761438153455541,-0.04094602821110581,0.0206113118909836,0.0018900212019275799,-0.03904439535028004,-0.042989308006671424,0.026977456187251114,-0.03680901424638721,-0.018772498945602258,-0.08111729868570505,0.0065549262600777805,-0.03689634419404009,0.05274972833447294,0.027310769819583667,-0.06387420449103592,5.253187211391838E-4,-0.012850905459876076,-0.027445860521166963,-0.04262665038445276,0.05739577793182903,0.056221731890671936,-0.07840533498721133,0.04513274096377822,0.061617182112652734,0.025139636508120056,0.03483927351031972,-0.06797752394176795,0.07400831584832335,0.03716256227127993,-0.07540516954720798,-0.0794594522547178,-0.028124029700475537,-0.04804825185404645,0.08237764706759383,-0.04651082907690078,-0.08146638582831316,0.073070632508148,0.022302154239774552,-0.045333678480129265,-0.02919461151030705,0.038020396805741444,-0.08654881826773048,-0.034609341486709654,-0.0498094681959363,-0.00679713051109444,0.014253594228663412,0.04109785290352013,-0.04496276257048534,0.0036925160736363317,0.01050060287735017,0.05943257691697917,-0.047065670867732716,-0.008155455962518172,-0.006294804289723996,-0.0018439815880714834,0.003529240310659455,-0.03672988585710614,-0.06906399423377335,-0.0223131803929463,0.045364826416108915,0.048900163937563496,-0.05539536815790175,0.06658149292471585,-0.034672578280029884,-0.011873021711024176,0.07316399340022312,-0.011593168836287086,-0.00664950043740124,-0.06295898057545792,0.05820328304380146,0.039640533873321046,-0.0051649267321559,-0.08426764789161872,-0.017604401071043132,0.055802408765832805,-0.07913836832636352,0.07549340923477382,-0.07171481131888044,-0.07040316756979206,-0.014674078517224671,0.005919118906440454,-0.012909487278796213,0.0816267400246405,0.025231292981975986,-0.02909953987421661,0.07656897729402358,6.172976131516266E-4,-0.02333427801092576,-0.07897585299929652,-0.011751309226800745,-0.025736278409982608,0.01796765877462206,-0.008117641401365876,-0.07297591316968809,-0.08402634977570127,0.016391998424196853,0.08177571295319616,0.05783040325940993,-0.07053754433777482,0.007186560228798634,-0.008835152700343974,0.08529459115502648,0.03057260282903549,-0.03760026960489574,-0.017609107094006454,0.036820743047266645,0.022752888983433858,0.051312757562888174,-0.04360795652444945,0.0403788466245131,-0.07982864808353463,0.08178161141610836,-0.04992443801150002,-0.02701615893455591,0.02028245714424833,0.04904218286210067,0.08377490070690956,-0.027379089064153594,-0.08168356944813202,0.06072148426396397,0.059911413775838106,-0.07132572589944217,-0.07915920580607351,0.015020953726754015,-0.07879308035091792,0.06602822881926854,-0.008077302881150198,-0.07539700510419182,-0.043390570687632496,0.08399399734111541,-0.002179686150709269,0.04979220287614577,0.05913001331580741,0.072719990850952,-0.08479339719775747,0.06941091676450768,-0.027839507653083646,-0.03663375841165078,-0.08621343838148927,0.07129547960715821,0.02060198907678591,0.045878467770448,0.012754023048949568,0.005176570736777335,-0.02308628327222335,0.030815399062644806,-0.06680881129000603,0.02167585056840228,-0.0032276443158006218,-0.013026066780087072,-0.036761815642734515,-0.0060390579270708,-0.04519819716375826,-0.03371066533226676,-0.009723155363301065,-0.02390933464104872,-0.07032197821958512,0.033587418545327666,-0.05448300522219151,0.02767664256494222,0.006891127737970248,-0.007829191957187048,0.01241396983979264,-0.005148046774669545,0.07634805801978199,-0.04732199434041321,-0.03955598496229299,0.043163296620129576,0.021108243004416105,-0.03161317782749164,-0.037158867047554084,-0.032284121098654146,0.05390391454980203,-0.0667655656307595,-0.010346989736124593,-0.08369070353867401,-0.0019340849324613137,-0.03756734167284198,-0.03303481258463501,0.03133120826452439,0.003816352159063015,0.045532093357113744,0.08287515638226667,0.028663684981222418,-0.007836054415288637,-0.008989514868600456,0.059775511307974774,0.08390556560382934,-4.3735361415982654E-4,0.043296039726004036,0.07978652119516846,-0.018302901690321192,0.028221065914760864,-0.018076520192258565,0.049857485096266745,0.028140950409799702,0.08194872874383405],[-0.016374368995857126,-0.07993532003975787,0.005574416496383168,-0.05910079641877557,0.0401268288658793,-0.07611859107326781,0.012546534017737561,-0.02189844016120069,0.07789334843472535,0.050020417267174565,0.047567338268411925,-0.07839879059227746,0.04974011550384624,0.08639834277221338,-0.03335052831320827,-0.056855819265316854,-0.0715877646902192,0.05518627556481652,0.059845738850294594,-0.011248617033824468,-0.0026645406684622625,-0.024893462161828913,0.056730449517118385,0.07994198638839936,0.016584550830487682,-0.040204561897598114,-0.011185095409766197,-0.057452362577071266,-0.013804878526909021,0.07558632741516881,0.07922912236337169,0.03990046314162172,0.07812307320914506,0.035413427547230515,-0.08398540665013095,-0.019179066469387697,-0.005799692172913822,0.006824668075593742,0.06139240424064294,0.02866612969971997,-0.08355102434497977,0.0347497972652817,-0.067320474986789,0.017443814237957333,0.040340087128006706,-0.037272935929050385,0.008089647092734058,0.05208842366578894,-0.05032022687308694,0.034119468138189994,0.02911917071011556,0.08214656663388527,0.049243470336415206,0.041071523352603286,-0.0020258403740725044,0.013490263506834112,-0.008138235605909856,0.07314771725746612,0.031082723262132815,-0.0037660847751172168,-0.0782070527964825,0.0520372892937603,0.06778399956527177,0.056202728883582284,0.04827827849925468,-0.0031882354202060013,0.00639930867297713,0.007669945279155119,-0.0656078050964805,-0.011523160121724272,-0.06459211643359593,-0.02719194940084963,-0.0810089420683051,-0.022352706759304945,-0.022115036341987464,-0.06735197403521737,0.050312715305905316,0.018761628241015186,0.030028914236856354,0.013366817043346432,0.05220610974980173,0.07296713708544555,0.012946065766071095,0.02053285169985527,0.007315621085576831,0.04205427338083837,-0.04661719911853326,0.015186629308352115,0.06119465499567452,