{"costFunction":{"name":"Cross Entropy"},"evaluationFunction":{"name":"Argmax Evaluation"},"optimizer":{"v1":0.1,"v2":0.9,"v3":0.999,"name":"Adaptive Moment Estimation"},"layers":[{"layer_data":{"function":"LeakyReLU","neurons":2},"layer_index":0},{"layer_data":{"function":"LeakyReLU","neurons":5,"weight":[[-0.8863633533354099,0.4540815169330969],[-0.8675796280933262,0.3708318855796446],[-0.2274755079492046,0.6837687930166121],[0.661923626841928,0.5896485336138606],[0.6665178019077102,0.016725648594739427]],"bias":[[0.01],[0.01],[0.01],[0.01],[0.01]]},"layer_index":1},{"layer_data":{"function":"LeakyReLU","neurons":7,"weight":[[0.6297392635917795,-0.4787004564849961,0.5329623568630116,0.3783417049958133,-0.25760958512063176],[-0.5143631342772529,-0.4872106133529011,-0.37123404737422666,0.05444705488360721,0.6565949414066486],[0.24306157590457447,-0.6588821976346411,0.009028183989059687,0.5093906344269116,-0.6421163308959411],[-0.1602379359976286,0.0677320123893555,-0.6303153217328555,0.5933335436193553,-0.6720905135075634],[0.3315645232227657,-0.26780025072413466,0.6959174639817243,0.5426783539508009,0.1485723943712066],[-0.04642643914093013,-0.5657264758878844,-0.6363590020939556,0.2133896234456789,0.0013273240754723666],[-0.5460175760807532,-0.6211849932438551,-0.15890028122067396,0.5194045834032586,-0.412492268179525]],"bias":[[0.01],[0.01],[0.01],[0.01],[0.01],[0.01],[0.01]]},"layer_index":2},{"layer_data":{"function":"LeakyReLU","neurons":3,"weight":[[-0.2585731529715123,0.6847535821977649,-0.1514765407442244,-0.41874765184248325,-0.263740146329181,-0.054573357532061766,-0.0852074503751399],[0.19072364955310026,0.07132225149927549,-0.07893683145651455,-0.2985144785183002,-0.16224233258254117,0.023233595059325245,-0.6626876144269076],[0.49530379855020085,0.45595498025767633,-0.5517689627453546,-0.04242760212671235,-0.09392532086715884,-0.23582656596770227,-0.28574627391888235]],"bias":[[0.01],[0.01],[0.01]]},"layer_index":3},{"layer_data":{"function":"Softmax","neurons":2,"weight":[[0.983059004357394,-0.11461968542544217,0.3335292085135119],[0.37740403022881763,0.7520200480868328,-1.02364733496213]],"bias":[[0.01],[0.01]]},"layer_index":4}]}